{
    "params": {
        "method": "classical",
        "train_or_predict": "predict",
        "training_steps": 3,
        "is_supervised": true,
        "quantum_circuit_type": "LittleEntanglementRandom",
        "quantum_depth": 3,
        "batch_size": 16,
        "discriminator_iterations": 5,
        "validation_interval": 1,
        "validation_samples": 100,
        "discriminator_training_rate": 0.02,
        "generator_training_rate": 0.02,
        "gradient_penalty_weight": 10.0,
        "shots": 100,
        "latent_dimensions": 4,
        "adv_loss_weight": 1,
        "con_loss_weight": 50,
        "enc_loss_weight": 1,
        "trained_model": {
            "auto_decoder_weights": [
                [
                    1.4732613563537598,
                    1.7703115940093994,
                    1.4783819913864136,
                    0.6451287269592285
                ],
                [
                    [
                        0.15758880366806766,
                        0.8195587871287769,
                        -0.35908480791639685,
                        -0.4121073589265497
                    ],
                    [
                        -0.19093317539098228,
                        0.003593822375797623,
                        -0.574439992338441,
                        -0.5474238588933052
                    ],
                    [
                        -0.29285401155534885,
                        -0.08963983605447623,
                        -0.22329993470488146,
                        0.506085214898888
                    ],
                    [
                        0.4702735271089506,
                        0.06165775002458,
                        -0.8941072382940165,
                        -0.44602438531911864
                    ]
                ],
                [
                    -0.03818237637778031,
                    -0.008346025228639822,
                    -0.0754658652181462,
                    0.0841134311046887
                ],
                [
                    [
                        0.04993075339012816,
                        0.4418677409370235,
                        0.25287197467267986,
                        -0.2886724541305181
                    ],
                    [
                        0.027610167456022575,
                        0.39900819794519693,
                        -0.17471696039540272,
                        -0.25332100495791915
                    ],
                    [
                        0.5050167029064331,
                        0.6226617154161951,
                        -0.3433474998321273,
                        -0.3688305101558859
                    ],
                    [
                        -0.285723495761171,
                        0.5729742440064389,
                        0.7780335027397077,
                        -0.23616491591977057
                    ]
                ],
                [
                    -0.03111023029984109,
                    -0.09418412623158971,
                    0.06511847965200708,
                    -0.016691809466700566
                ],
                [
                    [
                        0.1482902476369411,
                        -0.31064291743240485,
                        0.5586889314988479,
                        0.2935447973642043
                    ],
                    [
                        0.019364871806597687,
                        0.04976348110705346,
                        -0.6814008617112407,
                        0.47068095208997895
                    ],
                    [
                        0.6510571126342954,
                        0.6680530368259144,
                        0.8999702039291878,
                        -0.17319076106731746
                    ],
                    [
                        -0.7632863906381344,
                        -0.633618982256619,
                        0.31682919626223804,
                        0.2932399415581283
                    ]
                ],
                [
                    0.14232554763015323,
                    0.1429169383203415,
                    0.09368656751898786,
                    0.25553169730868497
                ]
            ],
            "auto_encoder_weights": [
                [
                    [
                        -0.37432598262044653,
                        -0.14862606684751958,
                        0.6446746838988439,
                        -0.4328077883627467
                    ],
                    [
                        -0.6270812858011109,
                        -0.6668220375229871,
                        0.19211863559051215,
                        0.47810704201735976
                    ],
                    [
                        -0.6277068892893404,
                        -0.6475821068022865,
                        0.4520655598596582,
                        -0.5892564260553061
                    ],
                    [
                        0.08113003321084426,
                        0.19001486539878634,
                        -0.8033739530019324,
                        0.4236569843549447
                    ]
                ],
                [
                    -0.06658243567471522,
                    0.08181362047185162,
                    -0.0837870324800252,
                    -0.07056850213182449
                ],
                [
                    [
                        -0.5037517851975171,
                        -0.40056549177431294,
                        -0.7384209517381555,
                        0.684816298353352
                    ],
                    [
                        0.08024739237638438,
                        -0.6339387083859295,
                        0.7128460760862311,
                        -0.710511973182029
                    ],
                    [
                        0.43797658959015,
                        0.37803615558765613,
                        -0.8673724849883729,
                        0.5947698729964297
                    ],
                    [
                        0.22707173766757913,
                        0.5213996309378618,
                        -0.7112728000146353,
                        -0.18567104008351906
                    ]
                ],
                [
                    -0.006178111392450265,
                    -0.09532647009657308,
                    -0.08324113646366604,
                    -0.08180393906279525
                ],
                [
                    [
                        -0.0810014956223048,
                        0.6691994707650247,
                        -0.2802917446452308,
                        -0.28670270989273755
                    ],
                    [
                        0.2804592752252267,
                        0.06580764024545144,
                        -0.2199713289263836,
                        0.28098305565890236
                    ],
                    [
                        0.5476346706684122,
                        0.3094668489100713,
                        -0.2346457103097852,
                        0.37175685473185127
                    ],
                    [
                        -0.679233772730729,
                        -0.4214810797813671,
                        0.5290619852898406,
                        0.3543466339925744
                    ]
                ],
                [
                    -0.042998047692077226,
                    -0.09715245445624635,
                    -0.06861739693456315,
                    -0.09492479462192675
                ],
                [
                    [
                        -0.0698763145013464,
                        0.6584287319626493,
                        -0.3825824071254284,
                        0.6518211399622241
                    ],
                    [
                        -0.08242410646943835,
                        -0.5454678905684066,
                        -0.7267942027993622,
                        -0.6413518574942516
                    ],
                    [
                        0.504472012106781,
                        -0.7509105790382054,
                        0.6066800955175056,
                        0.7340452650052584
                    ],
                    [
                        -0.3303480514829246,
                        -0.5508098032316934,
                        0.7537608162862554,
                        -0.5904830658073396
                    ]
                ],
                [
                    -0.009425739883630312,
                    -0.0071674922735229145,
                    -0.005761043180709648,
                    -0.0022015220892705866
                ]
            ],
            "discriminator_weights": [
                [
                    [
                        0.15237095064324827,
                        -0.5291615161246922,
                        0.4395239833309885,
                        0.628537309762993
                    ],
                    [
                        0.3736912687011443,
                        -0.07377384726194096,
                        0.3866986128623206,
                        -0.11540874183963509
                    ],
                    [
                        0.8278381658137615,
                        -0.12693985230274848,
                        0.03561819096209059,
                        -0.2269244159503273
                    ],
                    [
                        0.6026118272373285,
                        -0.8158697377627818,
                        -0.6027059671438582,
                        0.5170413388907756
                    ]
                ],
                [
                    0.11053708912910261,
                    -0.10932929604662886,
                    0.11046142775899177,
                    -0.11054009987913892
                ],
                [
                    [
                        -0.5826892231623209,
                        0.8005934767764096
                    ],
                    [
                        -0.00490144620378758,
                        -0.08356336918094216
                    ],
                    [
                        -1.1833938228133214,
                        0.05054911374946542
                    ],
                    [
                        -0.1328912008501842,
                        -0.9076856960806297
                    ]
                ],
                [
                    0.11028684958634867,
                    0.1105405064661635
                ],
                [
                    [
                        1.0138007161225941,
                        -0.31517844835684616
                    ],
                    [
                        1.0892770363327247,
                        -0.2195689485117501
                    ]
                ],
                [
                    0.11054296923027812,
                    0.11054419599500012
                ],
                [
                    [
                        -1.0340128697818443
                    ],
                    [
                        -1.0786699548575887
                    ]
                ],
                [
                    -0.11054253224654108
                ]
            ],
            "encoder_weights": [
                [
                    [
                        -0.9318982786715249,
                        0.04386333487701358,
                        -0.6056762929888255,
                        -0.4725770610433847
                    ],
                    [
                        -0.2879531466876557,
                        -0.8950466863461077,
                        0.6017248945320816,
                        0.168787917001022
                    ],
                    [
                        -0.8602450208428413,
                        -0.13324766142905622,
                        -0.04701063560380278,
                        -0.45847243144534666
                    ],
                    [
                        -0.5376473954370531,
                        0.7207423664542186,
                        0.502121845345018,
                        -0.5573725353116131
                    ]
                ],
                [
                    -0.1044437506349778,
                    -0.029505859361345553,
                    -0.030251067108101305,
                    -0.004618276263386145
                ],
                [
                    [
                        0.428073331477477,
                        0.5076716172485184,
                        -0.3625865117330585,
                        0.7618397953155744
                    ],
                    [
                        0.3766514186682996,
                        0.25045113298563887,
                        -0.6963528420354895,
                        0.37062901296067174
                    ],
                    [
                        0.419450043614347,
                        0.6164907212779719,
                        -0.031009166217603922,
                        -0.5064789115664845
                    ],
                    [
                        0.0555089508441045,
                        0.027077292558835956,
                        -0.7705823265942037,
                        0.04689647831773107
                    ]
                ],
                [
                    -0.04005974292221584,
                    -0.018812212976466597,
                    0.008746096789399199,
                    -0.010336152475976607
                ],
                [
                    [
                        0.49997287578000393,
                        -0.723824961868469,
                        0.01219587655738025,
                        -0.5926443401486733
                    ],
                    [
                        -0.12780368904309702,
                        -0.4223354785663196,
                        0.7475352578454537,
                        0.7343752860392364
                    ],
                    [
                        -0.5296486536153119,
                        0.09371145948094636,
                        -0.1638624780042256,
                        0.6557771307837208
                    ],
                    [
                        0.5798848040252883,
                        0.7829861413350047,
                        0.09474240331397461,
                        -0.7208565494703193
                    ]
                ],
                [
                    -0.0021747679800919713,
                    -0.018395627129480438,
                    -0.03155879081372817,
                    -0.009078601139240588
                ],
                [
                    [
                        0.2733893044073504,
                        -0.3547406352889359,
                        0.6520382439312904,
                        -0.18007805947360447
                    ],
                    [
                        0.5358246113117245,
                        0.44696376501359864,
                        0.6765022418398733,
                        0.13436969812650187
                    ],
                    [
                        0.6278750122974489,
                        -0.3836001530515663,
                        -0.6962047943618969,
                        -0.5692302724312736
                    ],
                    [
                        -0.7196212282100107,
                        -0.42790389520356037,
                        -0.45422487537952616,
                        -0.29910633644698187
                    ]
                ],
                [
                    0.009319316070492661,
                    0.0038925967027574524,
                    0.00627288570898433,
                    0.001066816823048727
                ]
            ],
            "latent_dim": 4,
            "threshold": 0.0013387236984610557
        }
    },
    "data": {
        "values": [
            [
                0.8703690630234513,
                0.9152264340251103,
                0.003917312643002316,
                0.1843946964135549,
                0.0
            ],
            [
                0.13812931413770732,
                0.0531310035123318,
                0.9037491858046557,
                0.90808385052695,
                0.0
            ],
            [
                0.1271837631816972,
                0.03217347465260724,
                0.9446258960233335,
                0.9096399643317419,
                0.0
            ],
            [
                0.9007215359450367,
                0.9759322521526523,
                0.08203359921244051,
                0.023472613509513122,
                0.0
            ],
            [
                0.9003571273844344,
                0.8786079732325509,
                0.14410516677601276,
                0.08953873791678058,
                0.0
            ],
            [
                0.04381190340617336,
                0.9304384423656492,
                0.0018299650853606337,
                0.9943067768201472,
                1.0
            ],
            [
                0.9346565172365934,
                0.08278706560495869,
                0.9308685252360713,
                0.005406760625522833,
                1.0
            ],
            [
                0.030752957450795107,
                0.9012409840418334,
                0.06246315802391757,
                0.8430923831502705,
                1.0
            ],
            [
                0.2870242584156148,
                0.9789044776298707,
                0.0009069875695204739,
                0.7894541876046169,
                1.0
            ],
            [
                0.9155546113525296,
                0.0017474710442063803,
                0.8615175314623567,
                0.05117053513537661,
                1.0
            ]
        ]
    }
}