{
    "params": {
        "method": "classical",
        "train_or_predict": "predict",
        "training_steps": 3,
        "quantum_circuit_type": "standard",
        "quantum_depth": 3,
        "batch_size": 3,
        "discriminator_iterations": 5,
        "validation_interval": 1,
        "validation_samples": 3,
        "discriminator_training_rate": 0.02,
        "generator_training_rate": 0.02,
        "gradient_penalty_weight": 10.0,
        "shots": 100,
        "latent_dimensions": 6,
        "adv_loss_weight": 1,
        "con_loss_weight": 50,
        "enc_loss_weight": 1,
        "classifier": {
            "auto_encoder_weights": [
                [
                    [
                        -0.04228674241600449,
                        -0.16748084413264994,
                        -0.219867293475686,
                        0.4004954579920888,
                        0.20143742623436522,
                        0.7570061823822607,
                        -0.46151633747300264,
                        -0.32303728687436406,
                        0.43661008797699696
                    ],
                    [
                        -0.017016306561890224,
                        0.39753064313250197,
                        -0.33698009385909006,
                        0.46805504456870156,
                        -0.1987224587621212,
                        0.4679571473745017,
                        0.22019269718301102,
                        -0.4372344160065095,
                        0.24766739723926492
                    ],
                    [
                        0.7748418708855908,
                        0.04018028465912783,
                        -0.4847453607995284,
                        0.13203684364379842,
                        0.41309310756472406,
                        -0.2215825820248275,
                        -0.48441008419016285,
                        -0.08561323445417371,
                        0.45656756297064527
                    ],
                    [
                        0.5081366941067105,
                        0.14184386571308755,
                        0.033473283254726705,
                        -0.17257419828856893,
                        0.06178165490273892,
                        -0.2385307848430084,
                        0.1591006124193801,
                        0.16628053403710796,
                        0.004271277268549948
                    ],
                    [
                        0.20839310042081638,
                        -0.1476738034633352,
                        0.4765464015463374,
                        0.5509604130768698,
                        0.052202469382907415,
                        0.5969027935796318,
                        0.6487334257666023,
                        -0.37144230844153825,
                        -0.5083154487711683
                    ],
                    [
                        -0.11767212989866302,
                        0.19302686920744103,
                        0.16080215550501556,
                        0.18222064059994852,
                        0.06920424452381382,
                        0.3873207044942359,
                        -0.15111718766185278,
                        0.22038687966565101,
                        0.40318062907425894
                    ],
                    [
                        -0.3067825323018662,
                        -0.07805217716665701,
                        -0.11136417191993579,
                        -0.33195396139530053,
                        -0.1849646595906488,
                        -0.6951746972608059,
                        -0.1664494831978067,
                        -0.16550925946972986,
                        0.22599356186601283
                    ],
                    [
                        -0.4670047777760875,
                        0.10203667525740127,
                        -0.21815099602710786,
                        0.5593794887870337,
                        -0.15197239640374516,
                        -0.5037195402488288,
                        -0.6251245321020712,
                        0.4255594336995833,
                        0.30541417005728333
                    ],
                    [
                        -0.25477743423823535,
                        0.444518013034081,
                        0.2170025619712149,
                        0.5584161593561857,
                        -0.30298516701844436,
                        -0.047235222327122676,
                        -0.15669541616628446,
                        0.13586175830018232,
                        0.20524807642721815
                    ]
                ],
                [
                    0.14022926501710709,
                    -0.03831956112156346,
                    0.03414362566464672,
                    -0.10472175902580567,
                    0.17886617924711481,
                    0.17448697507197522,
                    0.15771583996850333,
                    -0.032616288800277816,
                    0.00299098875668073
                ],
                [
                    [
                        0.308199549374476,
                        0.3164925820106838,
                        0.22177962183616656,
                        -0.26305968493293475,
                        0.4507333043553449,
                        -0.5031754945512191
                    ],
                    [
                        -0.45472229845070156,
                        -0.49048701495215613,
                        -0.48589469373681976,
                        0.20413098076421962,
                        -0.08865295246191836,
                        0.645627665490236
                    ],
                    [
                        -0.7034752194235835,
                        -0.5134335130405664,
                        -0.16550172178241931,
                        0.06681374097895275,
                        0.5654830956320835,
                        0.36620908558324866
                    ],
                    [
                        -0.07597978482753198,
                        0.30701841508659766,
                        -0.30615978837726926,
                        -0.6160158241201679,
                        -0.6145099066530214,
                        0.4055294400306002
                    ],
                    [
                        0.24143026212475233,
                        -0.0855298243612154,
                        0.7307525784424874,
                        -0.548948441518146,
                        0.28368827173437067,
                        -0.2416676622742554
                    ],
                    [
                        -0.5128347438720808,
                        0.4903751665517631,
                        0.3058485441677539,
                        -0.0035794437590622886,
                        -0.47859005516370895,
                        -0.6578648908701579
                    ],
                    [
                        0.29269761909840547,
                        0.16068657866975936,
                        0.27940183245019495,
                        -0.08446710396533613,
                        -0.5515010284811539,
                        -0.8055337414229315
                    ],
                    [
                        0.10466456577066567,
                        -0.47906858620424336,
                        0.2627238447306171,
                        0.40874267224792976,
                        0.169094280415316,
                        -0.035008441012869235
                    ],
                    [
                        -0.5215714144245658,
                        -0.6830588950299662,
                        0.4416541597614086,
                        -0.02531202966897448,
                        0.25414325282891026,
                        0.47044224706542337
                    ]
                ],
                [
                    -0.02175010980313819,
                    -0.16787567255403582,
                    0.041751575892356466,
                    -0.058710999959146574,
                    -0.012391065870395825,
                    -0.03945705693215349
                ],
                [
                    [
                        -0.0015653368045380704,
                        -0.05429159177362328,
                        0.5358194027735615,
                        -0.057125884881725535,
                        0.1934915417231142,
                        0.3063119822788518
                    ],
                    [
                        0.01927790211892962,
                        -0.22796228643475752,
                        -0.07758938222175514,
                        0.7416763094067838,
                        0.607189955963062,
                        0.4173995455079809
                    ],
                    [
                        0.4182216670162798,
                        -0.6025886353966934,
                        -0.41130797190525864,
                        0.24532876403516857,
                        -0.640095103160686,
                        -0.058374036625473254
                    ],
                    [
                        0.13533232792112673,
                        0.5946464164628583,
                        0.3650037545463907,
                        0.5836893409954756,
                        -0.06969545294176885,
                        0.4655576522910271
                    ],
                    [
                        0.11338241990522024,
                        0.1956634710269226,
                        0.1541097382842217,
                        -0.7411638012926671,
                        0.2859724872082206,
                        -0.394633235868609
                    ],
                    [
                        0.4697610498342791,
                        0.42406752106672446,
                        0.5339275545705346,
                        0.0073051962174063255,
                        0.5273830490552408,
                        0.7906813935299489
                    ]
                ],
                [
                    0.0561752402257444,
                    0.029717394902277032,
                    -0.04118518049681151,
                    -0.0751905982850778,
                    -0.06442839730505406,
                    -0.0013525870868780114
                ],
                [
                    [
                        0.08081658812643688,
                        0.05564489947874655,
                        0.7037893287426215,
                        -0.13488821433181064,
                        -0.08914664888438179,
                        0.04503289102829448
                    ],
                    [
                        -0.0931045944902902,
                        -0.08861891086002485,
                        -0.20290659375927034,
                        -0.6347291385589873,
                        -0.2131135348296988,
                        -0.2217645933844166
                    ],
                    [
                        -0.744352425031751,
                        -0.13744248600404904,
                        -0.037798973893700905,
                        -0.3940756778151506,
                        0.6999179844631604,
                        -0.19241452880364557
                    ],
                    [
                        0.051592501528004875,
                        -0.27509364734633895,
                        -0.28821283215387583,
                        0.36151898799053117,
                        0.4729046323207323,
                        0.23803621013647683
                    ],
                    [
                        0.43999896022271395,
                        0.7597053706092444,
                        -0.12474885598133104,
                        0.35933182406483205,
                        0.32648532323783885,
                        0.5153456913995437
                    ],
                    [
                        -0.6149197301155007,
                        0.7087308046433015,
                        -0.5594679424698816,
                        0.25066089704281125,
                        -0.057300487299814795,
                        -0.3921049714653386
                    ]
                ],
                [
                    0.0294704497164502,
                    -0.026593217993806175,
                    0.1607987907017896,
                    0.07144220823691443,
                    -0.05149332467137327,
                    -0.15821748792266277
                ]
            ],
            "auto_decoder_weights": [
                [
                    [
                        -0.24040722444112955,
                        -0.4072414573727422,
                        -0.7086374293364764,
                        -0.2094650455352189,
                        0.16832050860801107,
                        -0.281933121696038
                    ],
                    [
                        -0.3198505987363868,
                        0.3526686269956718,
                        -0.08551981146159757,
                        -0.3208678172329498,
                        -0.2387245319609358,
                        0.18030663567621777
                    ],
                    [
                        0.23813464448338445,
                        -0.5815756735054507,
                        -0.6237008375628231,
                        -0.08754361970273017,
                        -0.6130847139287452,
                        0.5639921539507073
                    ],
                    [
                        0.22654075701183157,
                        -0.42398598327493897,
                        0.9242313115230438,
                        0.37793426710676403,
                        -0.512970075814323,
                        -0.12046116227948105
                    ],
                    [
                        0.25920284096275314,
                        0.42798690935761996,
                        0.23233759726675063,
                        0.4918009960384385,
                        0.5659308777854465,
                        -0.19140702724598313
                    ],
                    [
                        -0.2718944124599429,
                        0.04310323522508791,
                        -0.472474053022717,
                        -0.34827164004582867,
                        -0.11232414917533076,
                        0.21965265948382823
                    ]
                ],
                [
                    -0.03074399798198727,
                    0.012462194806348297,
                    0.0551009518132044,
                    -0.0607837572003971,
                    -0.07314242377355062,
                    -0.05594449412194671
                ],
                [
                    [
                        0.12954177534908268,
                        -0.5888819412684683,
                        -0.032348012080651134,
                        0.3740752015484325,
                        0.23666864287855163,
                        -0.3501117112984074,
                        -0.00741042598978825,
                        -0.342555714137541,
                        0.047579332620580755
                    ],
                    [
                        -0.5240759834659576,
                        0.40373947727988213,
                        -0.08488415982657965,
                        0.12894409941642673,
                        -0.09614348653269664,
                        0.5639121764085453,
                        0.3951474411344558,
                        -0.2407476268729965,
                        0.5429761180992337
                    ],
                    [
                        0.3846299168792762,
                        0.18024843821633055,
                        -0.3528829429349666,
                        -0.5624563454541807,
                        0.5561236667312498,
                        -0.5460400846414175,
                        -0.28381496688788094,
                        0.5093770101148043,
                        0.024350673424047033
                    ],
                    [
                        0.3429741364179757,
                        0.04893775627595352,
                        0.2592879445529499,
                        0.05021511941607981,
                        -0.356945041936454,
                        -0.19132461981978366,
                        -0.28932192190781386,
                        0.46946318919554103,
                        0.11636272327406412
                    ],
                    [
                        -0.6664809968229863,
                        -0.21096123293610144,
                        -0.4450553872043146,
                        -0.5589744059238947,
                        0.6653701486781336,
                        0.41810507375063477,
                        0.11331178653434654,
                        0.07306142151718369,
                        -0.533208881649166
                    ],
                    [
                        0.04654002169174534,
                        0.24753719928686443,
                        0.16984640007820268,
                        0.42294135279749434,
                        0.418108432189044,
                        0.22336720334310597,
                        -0.02446969604488563,
                        0.22667606606099808,
                        -0.06422149586919705
                    ]
                ],
                [
                    0.18523019183473816,
                    -0.05886104855897445,
                    -0.0028151647530332835,
                    -0.08392867203189174,
                    0.02542915669680017,
                    -0.00564647433362477,
                    -0.03297722844749083,
                    0.08054913086172834,
                    0.02787959570235432
                ],
                [
                    [
                        -0.5187526052880327,
                        0.5778248023135385,
                        -0.185289019390459,
                        -0.11029711862374642,
                        -0.7131606347009978,
                        -0.07612177288584226,
                        0.3753594326220984,
                        0.2970727399856401,
                        0.3014640446732425
                    ],
                    [
                        0.10220999384335422,
                        0.0003308193553375879,
                        -0.3021971254010863,
                        0.3540197514080656,
                        -0.21470543420553054,
                        0.02336624849991298,
                        -0.0589889753915383,
                        -0.4267540787323055,
                        0.600955620149213
                    ],
                    [
                        0.13774145481966243,
                        0.14472674391438878,
                        0.09874732664890114,
                        0.23559911482377033,
                        -0.06689743016367948,
                        -0.36588801403117815,
                        0.3373888366878818,
                        -0.25042597335573497,
                        -0.1599115848828132
                    ],
                    [
                        -0.3529225332763422,
                        0.438747068252981,
                        0.161754880453588,
                        -0.4324675801088356,
                        0.3413518024973045,
                        -0.06065232455694334,
                        -0.3812204632382806,
                        0.2893649292486793,
                        -0.20673024698972806
                    ],
                    [
                        0.5198904467153102,
                        0.2367490075493662,
                        0.2746791766243169,
                        0.5038133683429755,
                        0.2233915503587192,
                        0.44352353956485685,
                        0.10954209885196023,
                        0.5201797881484967,
                        0.22004445085845636
                    ],
                    [
                        0.5893483378898005,
                        -0.06987947022555814,
                        -0.1553663944281954,
                        0.01269471949656867,
                        0.3497145179397657,
                        0.4084502001107892,
                        0.27718259660148886,
                        0.3558707411413542,
                        0.08570020929736011
                    ],
                    [
                        0.34782667278072277,
                        -0.4958848894615221,
                        -0.29942248649952646,
                        0.4803921042839675,
                        -0.06639233798143328,
                        0.09241428517580859,
                        0.13638186835685467,
                        -0.3921750352979955,
                        0.25392869125832873
                    ],
                    [
                        -0.27835245270973874,
                        0.3993253615297361,
                        -0.23169814769686148,
                        0.4410515699240751,
                        -0.4909401095305667,
                        -0.15732079109188246,
                        -0.2420379033810881,
                        -0.2608542825175256,
                        0.05401966868283544
                    ],
                    [
                        0.7349071659037182,
                        -0.6871030987921772,
                        -0.2421081532205908,
                        0.4321329027388368,
                        0.2130030906697955,
                        -0.42427574609806773,
                        -0.14353726388893356,
                        0.5848777549440294,
                        0.6388241315134306
                    ]
                ],
                [
                    0.0366640862395694,
                    -0.005336603245622393,
                    -0.08821781683199623,
                    0.0512119797094832,
                    0.03952692965381743,
                    -0.09995790740440298,
                    -0.1190401919272507,
                    0.03727750697676203,
                    0.013409245725632065
                ],
                [
                    [
                        0.14997786479880473,
                        -0.07525596066746808,
                        0.3769850516041691,
                        -0.15990636491374347,
                        -0.03083496208647548,
                        0.20170203578709212,
                        0.29377813906424244,
                        0.4536821890878096,
                        0.37518678246693843
                    ],
                    [
                        -0.23517230702571013,
                        0.07699725273471958,
                        0.1722608767919963,
                        0.35572627922612493,
                        -0.5963729883102352,
                        -0.2504010232423553,
                        -0.7766575507392218,
                        -0.8512794575826614,
                        -0.07324283785616692
                    ],
                    [
                        0.3427534758432301,
                        -0.17093468661991806,
                        -0.6601344945617199,
                        -0.12356591053922295,
                        -0.709517108886688,
                        0.09642664611550553,
                        0.18199027350886646,
                        -0.8294735448993735,
                        -0.4479021761840079
                    ],
                    [
                        0.22379708960831227,
                        -0.16249345391500739,
                        -0.3429753553117695,
                        0.018853845318644494,
                        0.33257886005262466,
                        0.6560143428760877,
                        -0.14964676669152907,
                        0.26164306778671337,
                        0.32276487676622584
                    ],
                    [
                        -0.3500583444368907,
                        0.27519489526402957,
                        -0.24626109279204852,
                        -0.15149479429847446,
                        -0.1247968221254555,
                        0.24319684090851612,
                        0.5875272645107055,
                        -0.005395596099905885,
                        0.5393973290307038
                    ],
                    [
                        0.10976856031428212,
                        -0.3003212757327411,
                        -0.13671367842248888,
                        0.21547320731726222,
                        0.34124382587767055,
                        0.022733936760141425,
                        -0.3664643880090786,
                        0.31518109657055965,
                        -0.2876106290060447
                    ],
                    [
                        0.59065891825372,
                        -0.13949073724424957,
                        0.25716675700912256,
                        -0.5449167994363802,
                        0.44449754706105254,
                        -0.5289137545654478,
                        -0.39144587179837514,
                        -0.2148931993927274,
                        -0.21855968200251447
                    ],
                    [
                        -0.10780960119945371,
                        0.30847763334913464,
                        -0.24114561871935988,
                        0.1557081893349658,
                        0.05348256662172038,
                        0.5899259098254093,
                        0.33369067324175306,
                        -0.29194381874478603,
                        0.5686937983935659
                    ],
                    [
                        0.27300906972945255,
                        0.41719563978612717,
                        0.20496684720803193,
                        0.3220243113817429,
                        -0.18179355616275453,
                        -0.16184428992664707,
                        0.6510802475254456,
                        0.1227858421301076,
                        0.24158126903234772
                    ]
                ],
                [
                    0.07783900503347038,
                    0.07038485562856647,
                    0.14170849665957266,
                    0.20312187014498728,
                    0.2372861737751903,
                    0.10942086954858371,
                    0.05473471602326528,
                    0.20618856831953017,
                    0.03122912468218825
                ]
            ],
            "encoder_weights": [
                [
                    [
                        -0.26735314107238195,
                        -0.18385213335741746,
                        -0.5755121437872813,
                        -0.42047511767636536,
                        -0.2201882843464691,
                        -0.454865712482332,
                        0.010046138653021343,
                        -0.33337967167570226,
                        0.02063069991132245
                    ],
                    [
                        0.20090432950323053,
                        0.5367612151898538,
                        -0.6039744938969767,
                        0.4370747248191745,
                        0.048947481377888645,
                        0.3548466210336735,
                        -0.09117691589408332,
                        0.41517129172361955,
                        0.05348152858377829
                    ],
                    [
                        -0.15026213864605625,
                        -0.33076854483522017,
                        -0.3854408315722692,
                        -0.2289567502923359,
                        -0.09402012796026733,
                        -0.5789105890037682,
                        0.2678996358824583,
                        0.03438983612781603,
                        -0.5394750508018754
                    ],
                    [
                        -0.4036680683602673,
                        -0.17846980179859812,
                        -0.16557277548147586,
                        -0.5060717743800741,
                        -0.2956184762249574,
                        -0.15823465180490842,
                        0.22566666777833122,
                        -0.4748374278867438,
                        -0.45128034370516346
                    ],
                    [
                        0.7362168966639254,
                        0.10490731255335109,
                        0.20378208923646857,
                        -0.11657725737019632,
                        0.2717934957135109,
                        0.006004530142322979,
                        0.17026534405365498,
                        -0.4345001427920432,
                        -0.34087403330782967
                    ],
                    [
                        -0.22692939548544278,
                        0.15998609170761668,
                        0.1885088579601527,
                        0.5116920283250037,
                        0.30357068979840524,
                        -0.14595939817710452,
                        0.5572963407602753,
                        0.49923513038708767,
                        0.02323321183931125
                    ],
                    [
                        0.05464827004519428,
                        -0.06160904281037859,
                        -0.495824370808506,
                        0.18482590343870112,
                        0.5569740719747394,
                        0.19065556589555316,
                        0.566163714272826,
                        -0.21238490789731435,
                        -0.20099909916342246
                    ],
                    [
                        0.48938047479566676,
                        0.37241205581239817,
                        -0.27750300568725644,
                        -0.10301521454372534,
                        0.10717707298816899,
                        0.3934827205266647,
                        -0.3320319558083544,
                        -0.3420953442518969,
                        -0.4314154430461539
                    ],
                    [
                        -0.16095291782435328,
                        0.5707911095232937,
                        -0.08390441250836313,
                        -0.4573320701466378,
                        0.7013378672507516,
                        -0.20364629466346781,
                        0.31373278127329934,
                        0.047961219619047445,
                        0.42456220865171374
                    ]
                ],
                [
                    0.1443482465872122,
                    -0.11352540797791584,
                    -0.03187792345551219,
                    0.09814241610583753,
                    -0.011569709695443721,
                    -0.06475892443995517,
                    -0.02266103880483624,
                    0.19603198450002896,
                    0.029955106478057394
                ],
                [
                    [
                        0.33815600757640313,
                        -0.3270648181400397,
                        -0.5542410817908074,
                        0.5006185412252301,
                        -0.2899865393689983,
                        -0.23600606916271066
                    ],
                    [
                        -0.0125440685549245,
                        -0.3292608155522679,
                        0.5770542176870086,
                        0.3809872907115345,
                        0.001452198447546815,
                        0.4295205139101824
                    ],
                    [
                        0.5733346411460235,
                        0.1718828912916826,
                        -0.12971672673417764,
                        -0.21010318628872507,
                        -0.4471200323588494,
                        -0.7558931857540168
                    ],
                    [
                        -0.31474064286489745,
                        0.24435872670213085,
                        0.1166406604563198,
                        -0.23181987081322492,
                        0.2518255750571694,
                        -0.17126575675029934
                    ],
                    [
                        0.3765492449862064,
                        -0.4701572343588888,
                        0.10561924888966519,
                        0.07672333883330328,
                        -0.42303422000507135,
                        0.6076772214485008
                    ],
                    [
                        0.2251525953613195,
                        0.057717239313288767,
                        0.6944168555426617,
                        -0.2716444894919002,
                        0.1848533421240276,
                        -0.6911038184940393
                    ],
                    [
                        0.39293054325804844,
                        0.44335426195585725,
                        0.20205682492576751,
                        0.2603774479246471,
                        0.2333355004513041,
                        0.7502522020267364
                    ],
                    [
                        -0.2851186891536684,
                        0.7831740022066269,
                        0.3775341746720677,
                        0.09828529198064602,
                        0.7167946876533966,
                        -0.1448432700961379
                    ],
                    [
                        -0.40167073988858604,
                        -0.250564481774233,
                        -0.23485258033829956,
                        -0.27012000403149905,
                        -0.23669756570311196,
                        0.6992922530644468
                    ]
                ],
                [
                    -0.07475721218700701,
                    0.03073333485987781,
                    -0.007381350578961979,
                    -0.03662430684617367,
                    -0.07196092222345521,
                    0.025814734521234922
                ],
                [
                    [
                        -0.3592336478549067,
                        -0.4423505791867955,
                        -0.40855566520979447,
                        0.6584047927831446,
                        0.03977320500988666,
                        -0.009897401125599605
                    ],
                    [
                        0.5500689767938539,
                        0.22095287104115657,
                        0.7668769782135172,
                        -0.659133988501358,
                        0.10701046073132792,
                        0.25146666046334304
                    ],
                    [
                        -0.35762904893405384,
                        0.2514790250139386,
                        -0.1500322425671035,
                        -0.1928337256358309,
                        -0.6192738109598724,
                        0.040487040289014245
                    ],
                    [
                        -0.4329762225462201,
                        -0.3358794410117014,
                        -0.6086644392077866,
                        -0.40018420866613424,
                        -0.43516525661330313,
                        -0.6180518626718496
                    ],
                    [
                        0.01557243660279536,
                        0.4595425272087527,
                        0.37891945552313167,
                        -0.4528296044820306,
                        0.19331724033427608,
                        -0.5811304330429609
                    ],
                    [
                        0.20415757395463663,
                        0.7057080541366219,
                        -0.8184079267607346,
                        0.6068105123981513,
                        -0.7296915486421535,
                        -0.6959750547212609
                    ]
                ],
                [
                    0.019557848544345523,
                    0.09089970959920401,
                    -0.0643740583592391,
                    0.006525963241362138,
                    -0.10916710756587351,
                    0.003198643802692604
                ],
                [
                    [
                        -0.16561583707385621,
                        0.14491789375878275,
                        0.6228783662698861,
                        0.4073769580871145,
                        0.40174133845148946,
                        0.38243822440779673
                    ],
                    [
                        -0.5049497268679093,
                        0.4476449178926645,
                        0.3606324868357957,
                        -0.13988483640588256,
                        -0.06573645525210578,
                        -0.33221674092835235
                    ],
                    [
                        0.026553412614410635,
                        -0.5463420874379553,
                        0.06370988609243544,
                        -0.1530224276789433,
                        0.6341131191034288,
                        -0.3988768545588623
                    ],
                    [
                        -0.3937267312052177,
                        0.4320878956673193,
                        -0.7812233913776842,
                        0.19094307389090673,
                        0.4484350140312673,
                        -0.10934301989252783
                    ],
                    [
                        -0.22266398689230396,
                        -0.8043441197122698,
                        -0.5010185488751203,
                        0.8741378937293018,
                        0.012249867075762744,
                        -0.26267214471058375
                    ],
                    [
                        -0.5209726487965151,
                        -0.30351460883654857,
                        -0.2677914841244833,
                        -0.19963091315948342,
                        -0.39736313547407626,
                        0.42353675856120054
                    ]
                ],
                [
                    -0.050092942458130355,
                    0.08634116326602108,
                    -0.00028597564829488387,
                    -0.07878039884299858,
                    -0.014635541974198744,
                    0.04247404373898532
                ]
            ],
            "discriminator_weights": [
                [
                    [
                        0.22836394642874305,
                        -1.163501986322686,
                        0.27023303043226565,
                        -0.42664467504478254,
                        0.268106104434829,
                        -1.4595640361337514,
                        0.4808289497676682,
                        0.9105766505024705,
                        0.5381079479335914
                    ],
                    [
                        0.19535469896526153,
                        1.2254249646465163,
                        -0.9081965185306802,
                        0.5066465966256285,
                        -0.1808486589129986,
                        0.8724036142203258,
                        -0.40673260760178215,
                        -0.5679167300970602,
                        -0.3303263171642532
                    ],
                    [
                        0.4062705246751867,
                        0.34158208496375886,
                        0.15831806695957665,
                        0.23879362312514904,
                        0.07826150480516295,
                        0.4230521585137687,
                        -0.02136756831835276,
                        -0.6722782514205425,
                        -0.2375057840591312
                    ],
                    [
                        -0.5572301584557132,
                        -1.7144690196604035,
                        -0.026294683399580854,
                        -0.6547939337114153,
                        0.7007816738326426,
                        -0.11231298483139265,
                        0.7661178016224446,
                        0.8990499804480733,
                        0.10515055296025697
                    ],
                    [
                        -0.18190620459819093,
                        0.9431065493392012,
                        -0.5270450179782549,
                        0.22109096679581536,
                        -0.6962437783919772,
                        0.5167151292219535,
                        -0.28791534927128837,
                        -0.2902263422880018,
                        -0.6176542371702798
                    ],
                    [
                        0.6114570774031982,
                        0.7069324656858484,
                        0.17782186618582596,
                        0.3133744546838772,
                        -0.13273521753377648,
                        -0.6720053638503228,
                        -0.5300616102175837,
                        0.24452711283235,
                        -0.42584911791982205
                    ],
                    [
                        -0.5887144034166825,
                        -0.9727775058622709,
                        0.252276397616515,
                        -0.6317683666336773,
                        -0.3304125670111896,
                        -1.1562508690477125,
                        -0.15845271803571287,
                        0.7633541881509571,
                        0.5662356500922681
                    ],
                    [
                        0.046979887960308546,
                        1.3642698672235543,
                        -1.1791950582148445,
                        -0.10032152942942524,
                        -0.17231219047230284,
                        1.2696351566065702,
                        -0.26219437472100965,
                        -0.7581735831021983,
                        -0.10165370765024799
                    ],
                    [
                        -0.9408334436645904,
                        0.739867138672589,
                        -0.1323610220186011,
                        -0.39633620023864624,
                        -0.002053927326810777,
                        0.8375013028956592,
                        0.28694061053668757,
                        0.31427811317164367,
                        -0.26592881876508273
                    ]
                ],
                [
                    0.06089944160773139,
                    -0.18934107158288233,
                    -0.16686058129949427,
                    0.0008310864839039117,
                    -0.20812500801754974,
                    -0.22265852147316276,
                    -0.20537815196766568,
                    -0.2632094122963459,
                    -0.0336426440664775
                ],
                [
                    [
                        -0.5505917913275966,
                        0.6083609644929604,
                        -1.0161068199419332,
                        -0.5149936109542645
                    ],
                    [
                        -1.95752881517588,
                        -0.05929168259812272,
                        -1.0665949085242452,
                        -1.5194043506274626
                    ],
                    [
                        0.7092544253925848,
                        -0.49209678795979817,
                        1.2149153626555942,
                        0.7649335231160208
                    ],
                    [
                        -0.13813252931959835,
                        0.0004797984811004963,
                        -0.9069937498341786,
                        -0.6223028925636203
                    ],
                    [
                        0.4197968853876505,
                        -0.2458981834263292,
                        0.31595607883146953,
                        0.24749773984006182
                    ],
                    [
                        -1.1278288192951567,
                        -0.14993322848291157,
                        -1.4039375167328145,
                        -1.3938892466165242
                    ],
                    [
                        -0.3644024168109886,
                        -0.20847017949267554,
                        0.4716028061067224,
                        0.5568478241455339
                    ],
                    [
                        1.1714703730213267,
                        -0.5084422390850395,
                        0.791250112020405,
                        1.1284609553591893
                    ],
                    [
                        0.63298962799001,
                        -0.08076988267004252,
                        0.15967295514193097,
                        0.5123536841516633
                    ]
                ],
                [
                    -0.05341404759680243,
                    0.07067941206124254,
                    -0.05844951634757642,
                    -0.07239980971786893
                ],
                [
                    [
                        1.5659271253085787,
                        -0.8362730321503907,
                        0.37049562444091455,
                        1.2689086650977899
                    ],
                    [
                        -0.4582398917167028,
                        0.543852908115275,
                        0.26583362246497894,
                        -0.16427956970457697
                    ],
                    [
                        1.5831893440038618,
                        -0.09298865026117521,
                        -0.22125081564523927,
                        1.5380274836692973
                    ],
                    [
                        0.9820682526386024,
                        -0.804796949354318,
                        0.6043014798346102,
                        1.2471664781414127
                    ]
                ],
                [
                    0.4595057297034557,
                    -0.41319469129593933,
                    -0.22617599162234286,
                    0.43937384311496774
                ],
                [
                    [
                        0.8752216615074095
                    ],
                    [
                        -1.1701423375035809
                    ],
                    [
                        -0.12157869234164166
                    ],
                    [
                        1.037936062210559
                    ]
                ],
                [
                    0.3686209586661456
                ]
            ],
            "threshold": 0.02053304633667469,
            "latent_dim": 6
        }
    },
    "data": {
        "values": [
            [
                0.9370186098551015,
                0.921981567635444,
                0.8985929672365479,
                0.10102346455136567,
                0.09772290503185904,
                0.1100610989159374,
                0.06477057388020797,
                0.0964527986715833,
                0.12739252806545098,
                0.0
            ],
            [
                0.919818707941956,
                0.8504884183157868,
                0.8969647505052396,
                0.9529457948863298,
                0.9868972941346208,
                0.9417877009290838,
                0.004120323665909765,
                0.1260498866684419,
                0.04495871230873992,
                0.0
            ],
            [
                0.13613357582994953,
                0.02607042895743942,
                0.05805593072555342,
                0.050980461898695616,
                0.00709593854361133,
                0.001869883446783158,
                0.9537275404796786,
                0.7689151497509643,
                0.9664773289011666,
                0.0
            ],
            [
                0.05623030619079015,
                0.038820440665885525,
                0.04993823971541544,
                0.023176942815609697,
                0.02126019804112813,
                0.025654303827969755,
                0.9435465681861068,
                0.8051815737415344,
                0.7929971445299718,
                0.0
            ],
            [
                0.00671362652843201,
                0.27391383905403804,
                0.1376893369076632,
                0.8947908054182595,
                0.8049275970050406,
                0.8946610719968751,
                0.8635190107155835,
                0.9746615127138449,
                0.9997814126705143,
                0.0
            ],
            [
                0.9234919393323592,
                0.8688881783906668,
                0.973338074162942,
                0.12511455738690858,
                0.06686377540397585,
                0.056372124580306875,
                0.03027670058260998,
                0.07384227790523537,
                0.21099532690685752,
                0.0
            ],
            [
                0.009980353012992474,
                0.023039094410437642,
                0.0746926471296154,
                0.0819224187390664,
                0.09139383585090384,
                0.0770256351369252,
                0.8357605177141318,
                0.9513974637382788,
                0.7961424317414632,
                0.0
            ],
            [
                0.0007340389643166134,
                0.05258872852616895,
                0.1988302501312064,
                0.023692388989554312,
                0.09684041510523222,
                0.14804257468106932,
                0.9153783685808432,
                0.9834250543063036,
                0.9637469420424803,
                0.0
            ],
            [
                0.015436526130288434,
                0.1107041304060693,
                0.044435356456616164,
                0.912157497860173,
                0.8824632766812561,
                0.9553632201592049,
                0.029509974160309087,
                0.12248289180421122,
                0.09352185664139163,
                0.0
            ],
            [
                0.045113199089257226,
                0.9382221287075274,
                0.9403705762718264,
                0.03904324244691992,
                0.996742745232521,
                0.7646777335798345,
                0.1106324935290914,
                0.9868340409954174,
                0.9977873622433884,
                1.0
            ],
            [
                0.8479620503071537,
                0.9715135891625468,
                0.95885771236049,
                0.15025559921546733,
                0.2591620790535682,
                0.0662830976070507,
                0.0013704414795008676,
                0.009591004162938016,
                0.099575341278738,
                0.0
            ],
            [
                0.09565457380988047,
                0.08333541950435452,
                0.9351236934819124,
                0.03616901969013348,
                0.12601044903268738,
                0.8623444883671336,
                0.00340173827172637,
                0.038392284270474766,
                0.9086548129404336,
                1.0
            ],
            [
                0.1573147239128662,
                0.1079053552887223,
                0.9204441159816518,
                0.21393020496701576,
                0.037780787151908274,
                0.9844332497535386,
                0.04194056146185349,
                0.07528531065521073,
                0.9209026052432184,
                1.0
            ],
            [
                0.10132645170795763,
                0.9440284788332428,
                0.9022662918655042,
                0.0731621101236004,
                0.9147859930914486,
                0.8761581446731884,
                0.2638531014114581,
                0.8704679901950725,
                0.8635003270497388,
                1.0
            ],
            [
                0.05170171574265053,
                0.9547153867840348,
                0.08286881260218469,
                0.0584881674236381,
                0.9358870872577322,
                0.0640035837194851,
                0.027447435006391768,
                0.9337687591690366,
                0.07120847874393046,
                1.0
            ],
            [
                0.04905679246395667,
                0.8921232810844382,
                0.08190440808397778,
                0.14725427470848682,
                0.9825467896929596,
                0.19847890143214367,
                0.14250010015805142,
                0.9739994338737452,
                0.10840885364354076,
                1.0
            ],
            [
                0.9563568103274116,
                0.9193695366630794,
                0.11051100296676973,
                0.924551181845845,
                0.7799633136336538,
                0.06609523292873487,
                0.8848086912899422,
                0.9215852735342916,
                0.0028368215615751442,
                1.0
            ],
            [
                0.046728234891060184,
                0.8304212663629208,
                0.9052433968532156,
                0.057812240736047786,
                0.8104125905259331,
                0.986905582294458,
                0.17118663276977233,
                0.9576442439237438,
                0.8683880935900918,
                1.0
            ],
            [
                0.17643031413386695,
                0.11249812086728847,
                0.9408521188368676,
                0.16524807517111806,
                0.1352078734624284,
                0.9989603245864884,
                0.10093679340395026,
                0.06434578927527324,
                0.99952097006178,
                1.0
            ],
            [
                0.935952839752634,
                0.24120729811068975,
                0.09679229643722352,
                0.9705377155761384,
                0.09143945544689733,
                0.004481058228715774,
                0.9882285227966668,
                0.034064628318211616,
                0.032381968178919834,
                1.0
            ],
            [
                0.9747905088842638,
                0.11357033144641347,
                0.05396256480249211,
                0.9385304659683344,
                0.013248032477540276,
                0.03376209746541129,
                0.8451638487852855,
                0.00949262426107824,
                0.059943060167719664,
                1.0
            ]
        ]
    }
}