{"params": {"method": "classical", "train_or_predict": "predict", "training_steps": 3, "quantum_circuit_type": "standard", "quantum_depth": 3, "batch_size": 16, "discriminator_iterations": 5, "validation_interval": 1, "validation_samples": 100, "discriminator_training_rate": 0.02, "generator_training_rate": 0.02, "gradient_penalty_weight": 10.0, "shots": 100, "latent_dimensions": 6, "adv_loss_weight": 1, "con_loss_weight": 50, "enc_loss_weight": 1, "classifier": {"auto_encoder_weights": [[[-0.04228674241600449, -0.16748084413264994, -0.219867293475686, 0.4004954579920888, 0.20143742623436522, 0.7570061823822607, -0.46151633747300264, -0.32303728687436406, 0.43661008797699696], [-0.017016306561890224, 0.39753064313250197, -0.33698009385909006, 0.46805504456870156, -0.1987224587621212, 0.4679571473745017, 0.22019269718301102, -0.4372344160065095, 0.24766739723926492], [0.7748418708855908, 0.04018028465912783, -0.4847453607995284, 0.13203684364379842, 0.41309310756472406, -0.2215825820248275, -0.48441008419016285, -0.08561323445417371, 0.45656756297064527], [0.5081366941067105, 0.14184386571308755, 0.033473283254726705, -0.17257419828856893, 0.06178165490273892, -0.2385307848430084, 0.1591006124193801, 0.16628053403710796, 0.004271277268549948], [0.20839310042081638, -0.1476738034633352, 0.4765464015463374, 0.5509604130768698, 0.052202469382907415, 0.5969027935796318, 0.6487334257666023, -0.37144230844153825, -0.5083154487711683], [-0.11767212989866302, 0.19302686920744103, 0.16080215550501556, 0.18222064059994852, 0.06920424452381382, 0.3873207044942359, -0.15111718766185278, 0.22038687966565101, 0.40318062907425894], [-0.3067825323018662, -0.07805217716665701, -0.11136417191993579, -0.33195396139530053, -0.1849646595906488, -0.6951746972608059, -0.1664494831978067, -0.16550925946972986, 0.22599356186601283], [-0.4670047777760875, 0.10203667525740127, -0.21815099602710786, 0.5593794887870337, -0.15197239640374516, -0.5037195402488288, -0.6251245321020712, 0.4255594336995833, 0.30541417005728333], [-0.25477743423823535, 0.444518013034081, 0.2170025619712149, 0.5584161593561857, -0.30298516701844436, -0.047235222327122676, -0.15669541616628446, 0.13586175830018232, 0.20524807642721815]], [0.14022926501710709, -0.03831956112156346, 0.03414362566464672, -0.10472175902580567, 0.17886617924711481, 0.17448697507197522, 0.15771583996850333, -0.032616288800277816, 0.00299098875668073], [[0.308199549374476, 0.3164925820106838, 0.22177962183616656, -0.26305968493293475, 0.4507333043553449, -0.5031754945512191], [-0.45472229845070156, -0.49048701495215613, -0.48589469373681976, 0.20413098076421962, -0.08865295246191836, 0.645627665490236], [-0.7034752194235835, -0.5134335130405664, -0.16550172178241931, 0.06681374097895275, 0.5654830956320835, 0.36620908558324866], [-0.07597978482753198, 0.30701841508659766, -0.30615978837726926, -0.6160158241201679, -0.6145099066530214, 0.4055294400306002], [0.24143026212475233, -0.0855298243612154, 0.7307525784424874, -0.548948441518146, 0.28368827173437067, -0.2416676622742554], [-0.5128347438720808, 0.4903751665517631, 0.3058485441677539, -0.0035794437590622886, -0.47859005516370895, -0.6578648908701579], [0.29269761909840547, 0.16068657866975936, 0.27940183245019495, -0.08446710396533613, -0.5515010284811539, -0.8055337414229315], [0.10466456577066567, -0.47906858620424336, 0.2627238447306171, 0.40874267224792976, 0.169094280415316, -0.035008441012869235], [-0.5215714144245658, -0.6830588950299662, 0.4416541597614086, -0.02531202966897448, 0.25414325282891026, 0.47044224706542337]], [-0.02175010980313819, -0.16787567255403582, 0.041751575892356466, -0.058710999959146574, -0.012391065870395825, -0.03945705693215349], [[-0.0015653368045380704, -0.05429159177362328, 0.5358194027735615, -0.057125884881725535, 0.1934915417231142, 0.3063119822788518], [0.01927790211892962, -0.22796228643475752, -0.07758938222175514, 0.7416763094067838, 0.607189955963062, 0.4173995455079809], [0.4182216670162798, -0.6025886353966934, -0.41130797190525864, 0.24532876403516857, -0.640095103160686, -0.058374036625473254], [0.13533232792112673, 0.5946464164628583, 0.3650037545463907, 0.5836893409954756, -0.06969545294176885, 0.4655576522910271], [0.11338241990522024, 0.1956634710269226, 0.1541097382842217, -0.7411638012926671, 0.2859724872082206, -0.394633235868609], [0.4697610498342791, 0.42406752106672446, 0.5339275545705346, 0.0073051962174063255, 0.5273830490552408, 0.7906813935299489]], [0.0561752402257444, 0.029717394902277032, -0.04118518049681151, -0.0751905982850778, -0.06442839730505406, -0.0013525870868780114], [[0.08081658812643688, 0.05564489947874655, 0.7037893287426215, -0.13488821433181064, -0.08914664888438179, 0.04503289102829448], [-0.0931045944902902, -0.08861891086002485, -0.20290659375927034, -0.6347291385589873, -0.2131135348296988, -0.2217645933844166], [-0.744352425031751, -0.13744248600404904, -0.037798973893700905, -0.3940756778151506, 0.6999179844631604, -0.19241452880364557], [0.051592501528004875, -0.27509364734633895, -0.28821283215387583, 0.36151898799053117, 0.4729046323207323, 0.23803621013647683], [0.43999896022271395, 0.7597053706092444, -0.12474885598133104, 0.35933182406483205, 0.32648532323783885, 0.5153456913995437], [-0.6149197301155007, 0.7087308046433015, -0.5594679424698816, 0.25066089704281125, -0.057300487299814795, -0.3921049714653386]], [0.0294704497164502, -0.026593217993806175, 0.1607987907017896, 0.07144220823691443, -0.05149332467137327, -0.15821748792266277]], "auto_decoder_weights": [[[-0.24040722444112955, -0.4072414573727422, -0.7086374293364764, -0.2094650455352189, 0.16832050860801107, -0.281933121696038], [-0.3198505987363868, 0.3526686269956718, -0.08551981146159757, -0.3208678172329498, -0.2387245319609358, 0.18030663567621777], [0.23813464448338445, -0.5815756735054507, -0.6237008375628231, -0.08754361970273017, -0.6130847139287452, 0.5639921539507073], [0.22654075701183157, -0.42398598327493897, 0.9242313115230438, 0.37793426710676403, -0.512970075814323, -0.12046116227948105], [0.25920284096275314, 0.42798690935761996, 0.23233759726675063, 0.4918009960384385, 0.5659308777854465, -0.19140702724598313], [-0.2718944124599429, 0.04310323522508791, -0.472474053022717, -0.34827164004582867, -0.11232414917533076, 0.21965265948382823]], [-0.03074399798198727, 0.012462194806348297, 0.0551009518132044, -0.0607837572003971, -0.07314242377355062, -0.05594449412194671], [[0.12954177534908268, -0.5888819412684683, -0.032348012080651134, 0.3740752015484325, 0.23666864287855163, -0.3501117112984074, -0.00741042598978825, -0.342555714137541, 0.047579332620580755], [-0.5240759834659576, 0.40373947727988213, -0.08488415982657965, 0.12894409941642673, -0.09614348653269664, 0.5639121764085453, 0.3951474411344558, -0.2407476268729965, 0.5429761180992337], [0.3846299168792762, 0.18024843821633055, -0.3528829429349666, -0.5624563454541807, 0.5561236667312498, -0.5460400846414175, -0.28381496688788094, 0.5093770101148043, 0.024350673424047033], [0.3429741364179757, 0.04893775627595352, 0.2592879445529499, 0.05021511941607981, -0.356945041936454, -0.19132461981978366, -0.28932192190781386, 0.46946318919554103, 0.11636272327406412], [-0.6664809968229863, -0.21096123293610144, -0.4450553872043146, -0.5589744059238947, 0.6653701486781336, 0.41810507375063477, 0.11331178653434654, 0.07306142151718369, -0.533208881649166], [0.04654002169174534, 0.24753719928686443, 0.16984640007820268, 0.42294135279749434, 0.418108432189044, 0.22336720334310597, -0.02446969604488563, 0.22667606606099808, -0.06422149586919705]], [0.18523019183473816, -0.05886104855897445, -0.0028151647530332835, -0.08392867203189174, 0.02542915669680017, -0.00564647433362477, -0.03297722844749083, 0.08054913086172834, 0.02787959570235432], [[-0.5187526052880327, 0.5778248023135385, -0.185289019390459, -0.11029711862374642, -0.7131606347009978, -0.07612177288584226, 0.3753594326220984, 0.2970727399856401, 0.3014640446732425], [0.10220999384335422, 0.0003308193553375879, -0.3021971254010863, 0.3540197514080656, -0.21470543420553054, 0.02336624849991298, -0.0589889753915383, -0.4267540787323055, 0.600955620149213], [0.13774145481966243, 0.14472674391438878, 0.09874732664890114, 0.23559911482377033, -0.06689743016367948, -0.36588801403117815, 0.3373888366878818, -0.25042597335573497, -0.1599115848828132], [-0.3529225332763422, 0.438747068252981, 0.161754880453588, -0.4324675801088356, 0.3413518024973045, -0.06065232455694334, -0.3812204632382806, 0.2893649292486793, -0.20673024698972806], [0.5198904467153102, 0.2367490075493662, 0.2746791766243169, 0.5038133683429755, 0.2233915503587192, 0.44352353956485685, 0.10954209885196023, 0.5201797881484967, 0.22004445085845636], [0.5893483378898005, -0.06987947022555814, -0.1553663944281954, 0.01269471949656867, 0.3497145179397657, 0.4084502001107892, 0.27718259660148886, 0.3558707411413542, 0.08570020929736011], [0.34782667278072277, -0.4958848894615221, -0.29942248649952646, 0.4803921042839675, -0.06639233798143328, 0.09241428517580859, 0.13638186835685467, -0.3921750352979955, 0.25392869125832873], [-0.27835245270973874, 0.3993253615297361, -0.23169814769686148, 0.4410515699240751, -0.4909401095305667, -0.15732079109188246, -0.2420379033810881, -0.2608542825175256, 0.05401966868283544], [0.7349071659037182, -0.6871030987921772, -0.2421081532205908, 0.4321329027388368, 0.2130030906697955, -0.42427574609806773, -0.14353726388893356, 0.5848777549440294, 0.6388241315134306]], [0.0366640862395694, -0.005336603245622393, -0.08821781683199623, 0.0512119797094832, 0.03952692965381743, -0.09995790740440298, -0.1190401919272507, 0.03727750697676203, 0.013409245725632065], [[0.14997786479880473, -0.07525596066746808, 0.3769850516041691, -0.15990636491374347, -0.03083496208647548, 0.20170203578709212, 0.29377813906424244, 0.4536821890878096, 0.37518678246693843], [-0.23517230702571013, 0.07699725273471958, 0.1722608767919963, 0.35572627922612493, -0.5963729883102352, -0.2504010232423553, -0.7766575507392218, -0.8512794575826614, -0.07324283785616692], [0.3427534758432301, -0.17093468661991806, -0.6601344945617199, -0.12356591053922295, -0.709517108886688, 0.09642664611550553, 0.18199027350886646, -0.8294735448993735, -0.4479021761840079], [0.22379708960831227, -0.16249345391500739, -0.3429753553117695, 0.018853845318644494, 0.33257886005262466, 0.6560143428760877, -0.14964676669152907, 0.26164306778671337, 0.32276487676622584], [-0.3500583444368907, 0.27519489526402957, -0.24626109279204852, -0.15149479429847446, -0.1247968221254555, 0.24319684090851612, 0.5875272645107055, -0.005395596099905885, 0.5393973290307038], [0.10976856031428212, -0.3003212757327411, -0.13671367842248888, 0.21547320731726222, 0.34124382587767055, 0.022733936760141425, -0.3664643880090786, 0.31518109657055965, -0.2876106290060447], [0.59065891825372, -0.13949073724424957, 0.25716675700912256, -0.5449167994363802, 0.44449754706105254, -0.5289137545654478, -0.39144587179837514, -0.2148931993927274, -0.21855968200251447], [-0.10780960119945371, 0.30847763334913464, -0.24114561871935988, 0.1557081893349658, 0.05348256662172038, 0.5899259098254093, 0.33369067324175306, -0.29194381874478603, 0.5686937983935659], [0.27300906972945255, 0.41719563978612717, 0.20496684720803193, 0.3220243113817429, -0.18179355616275453, -0.16184428992664707, 0.6510802475254456, 0.1227858421301076, 0.24158126903234772]], [0.07783900503347038, 0.07038485562856647, 0.14170849665957266, 0.20312187014498728, 0.2372861737751903, 0.10942086954858371, 0.05473471602326528, 0.20618856831953017, 0.03122912468218825]], "encoder_weights": [[[-0.26735314107238195, -0.18385213335741746, -0.5755121437872813, -0.42047511767636536, -0.2201882843464691, -0.454865712482332, 0.010046138653021343, -0.33337967167570226, 0.02063069991132245], [0.20090432950323053, 0.5367612151898538, -0.6039744938969767, 0.4370747248191745, 0.048947481377888645, 0.3548466210336735, -0.09117691589408332, 0.41517129172361955, 0.05348152858377829], [-0.15026213864605625, -0.33076854483522017, -0.3854408315722692, -0.2289567502923359, -0.09402012796026733, -0.5789105890037682, 0.2678996358824583, 0.03438983612781603, -0.5394750508018754], [-0.4036680683602673, -0.17846980179859812, -0.16557277548147586, -0.5060717743800741, -0.2956184762249574, -0.15823465180490842, 0.22566666777833122, -0.4748374278867438, -0.45128034370516346], [0.7362168966639254, 0.10490731255335109, 0.20378208923646857, -0.11657725737019632, 0.2717934957135109, 0.006004530142322979, 0.17026534405365498, -0.4345001427920432, -0.34087403330782967], [-0.22692939548544278, 0.15998609170761668, 0.1885088579601527, 0.5116920283250037, 0.30357068979840524, -0.14595939817710452, 0.5572963407602753, 0.49923513038708767, 0.02323321183931125], [0.05464827004519428, -0.06160904281037859, -0.495824370808506, 0.18482590343870112, 0.5569740719747394, 0.19065556589555316, 0.566163714272826, -0.21238490789731435, -0.20099909916342246], [0.48938047479566676, 0.37241205581239817, -0.27750300568725644, -0.10301521454372534, 0.10717707298816899, 0.3934827205266647, -0.3320319558083544, -0.3420953442518969, -0.4314154430461539], [-0.16095291782435328, 0.5707911095232937, -0.08390441250836313, -0.4573320701466378, 0.7013378672507516, -0.20364629466346781, 0.31373278127329934, 0.047961219619047445, 0.42456220865171374]], [0.1443482465872122, -0.11352540797791584, -0.03187792345551219, 0.09814241610583753, -0.011569709695443721, -0.06475892443995517, -0.02266103880483624, 0.19603198450002896, 0.029955106478057394], [[0.33815600757640313, -0.3270648181400397, -0.5542410817908074, 0.5006185412252301, -0.2899865393689983, -0.23600606916271066], [-0.0125440685549245, -0.3292608155522679, 0.5770542176870086, 0.3809872907115345, 0.001452198447546815, 0.4295205139101824], [0.5733346411460235, 0.1718828912916826, -0.12971672673417764, -0.21010318628872507, -0.4471200323588494, -0.7558931857540168], [-0.31474064286489745, 0.24435872670213085, 0.1166406604563198, -0.23181987081322492, 0.2518255750571694, -0.17126575675029934], [0.3765492449862064, -0.4701572343588888, 0.10561924888966519, 0.07672333883330328, -0.42303422000507135, 0.6076772214485008], [0.2251525953613195, 0.057717239313288767, 0.6944168555426617, -0.2716444894919002, 0.1848533421240276, -0.6911038184940393], [0.39293054325804844, 0.44335426195585725, 0.20205682492576751, 0.2603774479246471, 0.2333355004513041, 0.7502522020267364], [-0.2851186891536684, 0.7831740022066269, 0.3775341746720677, 0.09828529198064602, 0.7167946876533966, -0.1448432700961379], [-0.40167073988858604, -0.250564481774233, -0.23485258033829956, -0.27012000403149905, -0.23669756570311196, 0.6992922530644468]], [-0.07475721218700701, 0.03073333485987781, -0.007381350578961979, -0.03662430684617367, -0.07196092222345521, 0.025814734521234922], [[-0.3592336478549067, -0.4423505791867955, -0.40855566520979447, 0.6584047927831446, 0.03977320500988666, -0.009897401125599605], [0.5500689767938539, 0.22095287104115657, 0.7668769782135172, -0.659133988501358, 0.10701046073132792, 0.25146666046334304], [-0.35762904893405384, 0.2514790250139386, -0.1500322425671035, -0.1928337256358309, -0.6192738109598724, 0.040487040289014245], [-0.4329762225462201, -0.3358794410117014, -0.6086644392077866, -0.40018420866613424, -0.43516525661330313, -0.6180518626718496], [0.01557243660279536, 0.4595425272087527, 0.37891945552313167, -0.4528296044820306, 0.19331724033427608, -0.5811304330429609], [0.20415757395463663, 0.7057080541366219, -0.8184079267607346, 0.6068105123981513, -0.7296915486421535, -0.6959750547212609]], [0.019557848544345523, 0.09089970959920401, -0.0643740583592391, 0.006525963241362138, -0.10916710756587351, 0.003198643802692604], [[-0.16561583707385621, 0.14491789375878275, 0.6228783662698861, 0.4073769580871145, 0.40174133845148946, 0.38243822440779673], [-0.5049497268679093, 0.4476449178926645, 0.3606324868357957, -0.13988483640588256, -0.06573645525210578, -0.33221674092835235], [0.026553412614410635, -0.5463420874379553, 0.06370988609243544, -0.1530224276789433, 0.6341131191034288, -0.3988768545588623], [-0.3937267312052177, 0.4320878956673193, -0.7812233913776842, 0.19094307389090673, 0.4484350140312673, -0.10934301989252783], [-0.22266398689230396, -0.8043441197122698, -0.5010185488751203, 0.8741378937293018, 0.012249867075762744, -0.26267214471058375], [-0.5209726487965151, -0.30351460883654857, -0.2677914841244833, -0.19963091315948342, -0.39736313547407626, 0.42353675856120054]], [-0.050092942458130355, 0.08634116326602108, -0.00028597564829488387, -0.07878039884299858, -0.014635541974198744, 0.04247404373898532]], "discriminator_weights": [[[0.22836394642874305, -1.163501986322686, 0.27023303043226565, -0.42664467504478254, 0.268106104434829, -1.4595640361337514, 0.4808289497676682, 0.9105766505024705, 0.5381079479335914], [0.19535469896526153, 1.2254249646465163, -0.9081965185306802, 0.5066465966256285, -0.1808486589129986, 0.8724036142203258, -0.40673260760178215, -0.5679167300970602, -0.3303263171642532], [0.4062705246751867, 0.34158208496375886, 0.15831806695957665, 0.23879362312514904, 0.07826150480516295, 0.4230521585137687, -0.02136756831835276, -0.6722782514205425, -0.2375057840591312], [-0.5572301584557132, -1.7144690196604035, -0.026294683399580854, -0.6547939337114153, 0.7007816738326426, -0.11231298483139265, 0.7661178016224446, 0.8990499804480733, 0.10515055296025697], [-0.18190620459819093, 0.9431065493392012, -0.5270450179782549, 0.22109096679581536, -0.6962437783919772, 0.5167151292219535, -0.28791534927128837, -0.2902263422880018, -0.6176542371702798], [0.6114570774031982, 0.7069324656858484, 0.17782186618582596, 0.3133744546838772, -0.13273521753377648, -0.6720053638503228, -0.5300616102175837, 0.24452711283235, -0.42584911791982205], [-0.5887144034166825, -0.9727775058622709, 0.252276397616515, -0.6317683666336773, -0.3304125670111896, -1.1562508690477125, -0.15845271803571287, 0.7633541881509571, 0.5662356500922681], [0.046979887960308546, 1.3642698672235543, -1.1791950582148445, -0.10032152942942524, -0.17231219047230284, 1.2696351566065702, -0.26219437472100965, -0.7581735831021983, -0.10165370765024799], [-0.9408334436645904, 0.739867138672589, -0.1323610220186011, -0.39633620023864624, -0.002053927326810777, 0.8375013028956592, 0.28694061053668757, 0.31427811317164367, -0.26592881876508273]], [0.06089944160773139, -0.18934107158288233, -0.16686058129949427, 0.0008310864839039117, -0.20812500801754974, -0.22265852147316276, -0.20537815196766568, -0.2632094122963459, -0.0336426440664775], [[-0.5505917913275966, 0.6083609644929604, -1.0161068199419332, -0.5149936109542645], [-1.95752881517588, -0.05929168259812272, -1.0665949085242452, -1.5194043506274626], [0.7092544253925848, -0.49209678795979817, 1.2149153626555942, 0.7649335231160208], [-0.13813252931959835, 0.0004797984811004963, -0.9069937498341786, -0.6223028925636203], [0.4197968853876505, -0.2458981834263292, 0.31595607883146953, 0.24749773984006182], [-1.1278288192951567, -0.14993322848291157, -1.4039375167328145, -1.3938892466165242], [-0.3644024168109886, -0.20847017949267554, 0.4716028061067224, 0.5568478241455339], [1.1714703730213267, -0.5084422390850395, 0.791250112020405, 1.1284609553591893], [0.63298962799001, -0.08076988267004252, 0.15967295514193097, 0.5123536841516633]], [-0.05341404759680243, 0.07067941206124254, -0.05844951634757642, -0.07239980971786893], [[1.5659271253085787, -0.8362730321503907, 0.37049562444091455, 1.2689086650977899], [-0.4582398917167028, 0.543852908115275, 0.26583362246497894, -0.16427956970457697], [1.5831893440038618, -0.09298865026117521, -0.22125081564523927, 1.5380274836692973], [0.9820682526386024, -0.804796949354318, 0.6043014798346102, 1.2471664781414127]], [0.4595057297034557, -0.41319469129593933, -0.22617599162234286, 0.43937384311496774], [[0.8752216615074095], [-1.1701423375035809], [-0.12157869234164166], [1.037936062210559]], [0.3686209586661456]], "threshold": 0.02053304633667469, "latent_dim": 6}}, "data": { "values": [[0.9370186098551015, 0.921981567635444, 0.8985929672365479, 0.10102346455136567, 0.09772290503185904, 0.1100610989159374, 0.06477057388020797, 0.0964527986715833, 0.12739252806545098, 0.0], [0.919818707941956, 0.8504884183157868, 0.8969647505052396, 0.9529457948863298, 0.9868972941346208, 0.9417877009290838, 0.004120323665909765, 0.1260498866684419, 0.04495871230873992, 0.0], [0.13613357582994953, 0.02607042895743942, 0.05805593072555342, 0.050980461898695616, 0.00709593854361133, 0.001869883446783158, 0.9537275404796786, 0.7689151497509643, 0.9664773289011666, 0.0], [0.05623030619079015, 0.038820440665885525, 0.04993823971541544, 0.023176942815609697, 0.02126019804112813, 0.025654303827969755, 0.9435465681861068, 0.8051815737415344, 0.7929971445299718, 0.0], [0.00671362652843201, 0.27391383905403804, 0.1376893369076632, 0.8947908054182595, 0.8049275970050406, 0.8946610719968751, 0.8635190107155835, 0.9746615127138449, 0.9997814126705143, 0.0], [0.9234919393323592, 0.8688881783906668, 0.973338074162942, 0.12511455738690858, 0.06686377540397585, 0.056372124580306875, 0.03027670058260998, 0.07384227790523537, 0.21099532690685752, 0.0], [0.009980353012992474, 0.023039094410437642, 0.0746926471296154, 0.0819224187390664, 0.09139383585090384, 0.0770256351369252, 0.8357605177141318, 0.9513974637382788, 0.7961424317414632, 0.0], [0.0007340389643166134, 0.05258872852616895, 0.1988302501312064, 0.023692388989554312, 0.09684041510523222, 0.14804257468106932, 0.9153783685808432, 0.9834250543063036, 0.9637469420424803, 0.0], [0.015436526130288434, 0.1107041304060693, 0.044435356456616164, 0.912157497860173, 0.8824632766812561, 0.9553632201592049, 0.029509974160309087, 0.12248289180421122, 0.09352185664139163, 0.0], [0.8479620503071537, 0.9715135891625468, 0.95885771236049, 0.15025559921546733, 0.2591620790535682, 0.0662830976070507, 0.0013704414795008676, 0.009591004162938016, 0.099575341278738, 0.0], [0.871717877573235, 0.9033673850973404, 0.9305610686756766, 0.20356322191300316, 0.06174921279244053, 0.06656551319241975, 0.022495459496969992, 0.15991436558406644, 0.08428221201356327, 0.0], [0.9069581373823838, 0.9612987615047476, 0.9296650978106626, 0.9322011015259558, 0.8978182675006349, 0.9294185773184868, 0.061114070839323464, 0.009344054893520505, 0.11013422175534754, 0.0], [0.11916641945011527, 0.08885182045705381, 0.012113926455885904, 0.03558122506612905, 0.02255978226287331, 0.0037421250940413405, 0.988439204021626, 0.9678180679539198, 0.9531965125124534, 0.0], [0.06758533877241467, 0.0748916691482085, 0.0021913268598184508, 0.005667071047495663, 0.014661420428310654, 0.09215140124782, 0.8406582918720823, 0.9592389093192972, 0.9458424048625981, 0.0], [0.7789897952609377, 0.9305716224314906, 0.9012671468822824, 0.07206995748382374, 0.015266822799330103, 0.06622126668116947, 0.07410506890460918, 0.046556886467658085, 0.13671524687516906, 0.0], [0.9632471250781398, 0.9617820265438716, 0.9651065260428562, 0.052651565659435975, 0.07718523272455133, 0.04896276575280209, 0.8756616305240724, 0.9611678645629484, 0.9791614496912626, 0.0], [0.9114357280972616, 0.8621324341175887, 0.9848892401724983, 0.026492761292828654, 0.0357498557437924, 0.08477118836456071, 0.07920741203768598, 0.0467919062636378, 0.054904111207571375, 0.0], [0.02802735327845273, 0.045115111635399566, 0.003232557144805845, 0.9460965627609322, 0.7480814061254901, 0.9860567163246541, 0.02482389519277092, 0.12850735071479674, 0.16586220642036598, 0.0], [0.13472945883567994, 0.15032328917794094, 0.010665349430522832, 0.8378763190941477, 0.9620090706946044, 0.9247459678367788, 0.996276450859546, 0.9671990978176386, 0.915939963668806, 0.0], [0.142766210933857, 0.029490873626957924, 0.0033479917851606355, 0.034687405638300174, 0.07829643924556927, 0.056529043770214775, 0.8992240990604424, 0.9717109681233408, 0.9825707167598556, 0.0], [0.8806177089939194, 0.8960228769519512, 0.8819764686312547, 0.9530430565984948, 0.9614845042411384, 0.9555925814907071, 0.13142162409642325, 0.04379289533314093, 0.1323505336673456, 0.0], [0.06578883351696778, 0.046421015013509564, 0.06849544577688467, 0.1510942176535955, 0.0008632226665878594, 0.15908000852706689, 0.943709592370084, 0.9489295698013119, 0.975746621320723, 0.0], [0.9826299022876094, 0.9690459913443966, 0.9599536765124468, 0.9813687140862308, 0.8317153659020557, 0.9170722367812268, 0.14515532155712246, 2.4054897937734117e-05, 0.07403522338156958, 0.0], [0.08878496092336402, 0.006129450666910188, 0.03666324978357448, 0.006678814635856432, 0.024908802827728862, 0.11056774594111647, 0.9946739578470769, 0.887017986536966, 0.8382138339471714, 0.0], [0.9625166039347884, 0.9404243976396398, 0.7837443653859535, 0.0566696362856172, 0.010861931635403426, 0.08290306042104911, 0.992526135929673, 0.9121468043308186, 0.9418705146360656, 0.0], [0.18634663134165935, 0.02642252427212449, 0.02527563480623737, 0.9903743856407206, 0.9922739017001704, 0.9694338541251948, 0.04449763481756082, 0.2161565262912001, 0.08841713578593598, 0.0], [0.8012755841596386, 0.945992823102922, 0.8315323113441698, 0.8721513394569397, 0.801189889475823, 0.8954588891741828, 0.12109388788144658, 0.09539665538093628, 0.11813170031745482, 0.0], [0.20057853119216096, 0.13002738660811455, 0.13864722877621052, 0.8509115310928271, 0.8598469547373722, 0.9165028873927542, 0.835022520986447, 0.8233403268699551, 0.9358403094194117, 0.0], [0.014437725913811837, 0.04335257226778103, 0.0939018662180475, 0.9150876937577188, 0.9748357860079616, 0.9123038069257478, 0.11965593498580895, 0.14360434788478155, 0.026226869723421392, 0.0], [0.9612028086232832, 0.8603903984741618, 0.9299418069344244, 0.05818541108547661, 0.04424470077919986, 0.12980700090397307, 0.9805825474413822, 0.8937554962806431, 0.8630003528370864, 0.0], [0.20917804598469256, 0.025328742460763817, 0.16400550282557025, 0.9735450354498941, 0.9194228870038164, 0.9839491161191066, 0.0066025796649274975, 0.12428632504435327, 0.03304829275239054, 0.0], [0.8086003141879515, 0.8977825506453068, 0.9357716493233688, 0.0464444552784426, 0.017199396572610628, 0.02712801015869417, 0.7312164365562551, 0.9973754831041748, 0.8991236292795032, 0.0], [0.9245364150697276, 0.9653010477693944, 0.8388811173961767, 0.12245782211524195, 0.14230519477558368, 0.008383961367161349, 0.9151675386941464, 0.9163200224974934, 0.8013838086838907, 0.0], [0.10392044765226832, 0.05472409459392333, 0.16557291246558045, 0.9339008685532108, 0.9966775506815616, 0.9671949305178634, 0.8980635253145649, 0.9517095590231744, 0.9272014976480936, 0.0], [0.14627966323092673, 0.02713375460066324, 0.030642983089506238, 0.7612027547356233, 0.9836940336241023, 0.9080511689623871, 0.8948118010687299, 0.8607169645112492, 0.9791905645261538, 0.0], [0.9793092240499732, 0.9556347195588708, 0.981764707295262, 0.02252271687899196, 0.24032691997178626, 0.1660976997114845, 0.9608930145501071, 0.8219662075926426, 0.7785083666399425, 0.0], [0.10053935868312464, 0.1643144271761592, 0.02096880142717411, 0.8971881359192044, 0.9347630812120084, 0.8842583554779426, 0.9527982592862836, 0.7948119830749414, 0.9534526572228391, 0.0], [0.07931397236503013, 0.022044945593716697, 0.08068635990703656, 0.09687698693902153, 0.03318027758059874, 0.010247646862731656, 0.9462787886841002, 0.9527443770135828, 0.8670900261072244, 0.0], [0.9380591902476122, 0.9897806824226286, 0.9887275876893084, 0.11162780063775417, 0.014358271212583843, 0.14969416785754536, 0.8904864931100213, 0.8876852592462411, 0.8865436954306589, 0.0], [0.9937983337748686, 0.9286963957205129, 0.9686708355788956, 0.034481974594515095, 0.08320820034102368, 0.014738941940704603, 0.9036904536462782, 0.8232728425213613, 0.9397341014198732, 0.0], [0.9399903408204132, 0.9803517640798101, 0.9893712948280486, 0.16711085869283665, 0.009688428819864914, 0.006509029041613601, 0.8797182306802759, 0.9636568995597988, 0.7819500513664779, 0.0], [0.7883829993098903, 0.9800394333424759, 0.9158587215423006, 0.07909039201770775, 0.13796298023624448, 0.16122927309224994, 0.13693397577837574, 0.007219709935357459, 0.028823879911946994, 0.0], [0.0026118959508015798, 0.09116819789082116, 0.05133861899718315, 0.7703635127384312, 0.9697870272934146, 0.9888430767038334, 0.9065469516255168, 0.9192575993505496, 0.897777445693977, 0.0], [0.06707731314459453, 0.0832624687150727, 0.011468165561309376, 0.8973829806411142, 0.9046207394984938, 0.9472808866866996, 0.13352184398030345, 0.053459990350767705, 0.17439488460624056, 0.0], [0.013470951687074784, 0.08212346098073793, 0.07855867127357763, 0.996700910307331, 0.8144646969390353, 0.930262959532227, 0.9263738922420248, 0.8857997864566849, 0.9874423111198664, 0.0], [0.03829906073305527, 0.0120717390868468, 0.03756586050299568, 0.9486947163537621, 0.8736571409951126, 0.9354233452113042, 0.9928411152145248, 0.968387913431566, 0.9181980475254504, 0.0], [0.13933213292174867, 0.23513849370538134, 0.05220566838292584, 0.04928351620199134, 0.02428342716314458, 0.006612870029813496, 0.92577358529082, 0.945263652689298, 0.9604528895131409, 0.0], [0.732948942385854, 0.8660185356743774, 0.9313138255100964, 0.07799052764227472, 0.03785520309110698, 0.09626804995541458, 0.18817048168842346, 0.11078700655646162, 0.11254358286209504, 0.0], [0.9005095465492952, 0.9163051687857257, 0.9859120230645968, 0.0003229977693222564, 0.027760626585398632, 0.016439579628454614, 0.016916809455264876, 0.0015858314431587011, 0.07627872249556003, 0.0], [0.9120590046604992, 0.993816454483384, 0.9906529709238854, 0.006518765541083407, 0.052839132027228584, 0.07347030019213924, 0.8937799674017789, 0.9869475660667776, 0.7429013725747594, 0.0], [0.013198803398537136, 0.02983647812033632, 0.0007479009634858648, 0.8643254904756482, 0.8440783577136693, 0.9839293078185682, 0.9111551847031129, 0.9654758516502608, 0.8762653186967345, 0.0], [0.09557025506006712, 0.07478957095617429, 0.015219485258523197, 0.19434667294549512, 0.04279142750531701, 0.1528664835677778, 0.9834724343744291, 0.8108847238405842, 0.8821695749909364, 0.0], [0.0010668737602840632, 0.025096437831856045, 0.06706255585922065, 0.16512190348953742, 0.028645632546078582, 0.038290012319328166, 0.9055434770612, 0.914219523943088, 0.9567430399584588, 0.0], [0.06974288773709945, 0.14935653430263404, 0.03345907162049471, 0.9397686936848388, 0.9246860168185772, 0.9479389060331328, 0.10103615543413344, 0.09547060864150267, 0.03650918499111485, 0.0], [0.01316874948554346, 0.051019843832298406, 0.19763261777674976, 0.8891608621187748, 0.8989787286567537, 0.8232222090326018, 0.0584334933251878, 0.03880975961956589, 0.08629356597750312, 0.0], [0.028106253399692274, 0.10024619934539973, 0.06821457015817148, 0.01388794886153522, 0.17497493736605596, 0.03934590900638348, 0.9341137278546272, 0.9310596691224908, 0.964637847201648, 0.0], [0.9803048471430982, 0.9515368026147548, 0.979509966733322, 0.07181478766931497, 0.004344579713138347, 0.12549283451402854, 0.9308849658937668, 0.8789709830088837, 0.840294963969907, 0.0], [0.8247882739212654, 0.9979113715635854, 0.8758169590740911, 0.9707179555372124, 0.9815461962755736, 0.9636741233051216, 0.24968610908143615, 0.0851679675942757, 0.1516753347778349, 0.0], [0.9821545150443912, 0.9904982678997556, 0.9289130802528536, 0.9357571008201756, 0.9954467196024459, 0.9518885615236472, 0.033804233478984695, 0.18370429543121145, 0.00523410243678984, 0.0], [0.8154550927312874, 0.8341741310587316, 0.9665622142387577, 0.04496032187082638, 0.039925730011482564, 0.035520065530069735, 0.9518949356389516, 0.7754535009776906, 0.8760007419001312, 0.0], [0.16178039995524016, 0.006145529730581762, 0.11939291064136055, 0.039923380128603504, 0.019549757016206742, 0.03517218182984396, 0.8303008496387981, 0.9588401048985318, 0.9211798637997208, 0.0], [0.014824835201426106, 0.20757694949420102, 0.10493797607714307, 0.8874835325814778, 0.9837550121766137, 0.9401386217426404, 0.9911954356667374, 0.9243104226499754, 0.9791549233348488, 0.0], [0.8959243482430309, 0.7435147904955721, 0.7480488070281932, 0.18350662322196254, 0.10179086686659332, 0.006376400870030944, 0.052579905587496686, 0.0739329368605136, 0.006580304160807645, 0.0], [0.9039844305198316, 0.9981061745857054, 0.9871555114394422, 0.9676050238854584, 0.8957223260358511, 0.9777850792186552, 0.1998061055114369, 0.030472655615920788, 0.05023777519832632, 0.0], [0.10441797774001783, 0.06902301114775572, 0.1464166333289248, 0.9540794739165688, 0.9704111635873904, 0.7658962691742848, 0.21325764582179488, 0.0431518273678105, 0.003974950967125828, 0.0], [0.03624177241587239, 0.11448147771303123, 0.17905608052690622, 0.8801999743505999, 0.9018449422325219, 0.9367378623765692, 0.09727630486817003, 0.038404538787795164, 0.052385446944929095, 0.0], [0.10429206583275752, 0.011408039095198124, 0.10636144240905177, 0.9194914683902246, 0.9703603108898228, 0.8094965855554673, 0.14762085961100413, 0.000239649400705726, 0.014948999567497812, 0.0], [0.01667921866545984, 0.16225421189523045, 0.09416504511721842, 0.8563498801827045, 0.9359076577719564, 0.9433180360114659, 0.9536040704611364, 0.9250341668209999, 0.8881878963644501, 0.0], [0.08440879777458893, 0.07142836999570265, 0.10150857294382223, 0.9505232031324796, 0.91927354973413, 0.9484485252562292, 0.07132420255158721, 0.07646852608502444, 0.04719240166774185, 0.0], [0.9869262330642129, 0.9828442596453124, 0.9608990309023892, 0.007485895861077083, 0.07211435902695135, 0.002449741254219507, 0.9467796113376092, 0.9169912312711044, 0.9894716778957648, 0.0], [0.12375220768383538, 0.0648136858314678, 0.13574403070485594, 0.8858771370501846, 0.9251804302432136, 0.8554334805511894, 0.8450262192270125, 0.919491309089736, 0.8372611685508574, 0.0], [0.08652829464211337, 0.13499323560284918, 0.17967999987054914, 0.09465875067935696, 0.1175515282663239, 0.12376670259386907, 0.917691542513858, 0.9298052333038961, 0.9890029885908524, 0.0], [0.9503459378563566, 0.8939646386312186, 0.9673247958224812, 0.0915680470456578, 0.05142523443824629, 0.10036749300453564, 0.019664725809054744, 0.1307991487662092, 0.08968168782135072, 0.0], [0.019004934121485056, 0.01126629943755317, 0.09648377426934084, 0.012763696927895607, 0.011162491995670895, 0.20201527063108424, 0.9381383349218648, 0.9970313958478008, 0.8638792497436407, 0.0], [0.9183560298279736, 0.8723534618893761, 0.9690248075787232, 0.05731383874677101, 0.041478307501370236, 0.032157980241979287, 0.08926780741370538, 0.1301631149832264, 0.08750110809781599, 0.0], [0.06268828152486028, 0.012371463989022393, 0.0324630280766337, 0.9285738772466484, 0.9521106264363192, 0.9884699612714836, 0.04129655543161617, 0.10140372561036716, 0.0962691060818434, 0.0], [0.9592324642185254, 0.9311834585458711, 0.9771693210154498, 0.9111986964393904, 0.9564477742724222, 0.9442553225520623, 0.14476127697981808, 0.05753093083274169, 0.08316714295212661, 0.0], [0.1826076600499542, 0.10328512681343356, 0.009835670800932748, 0.8773698118136014, 0.9621827594972427, 0.9249207540983566, 0.9309284313769892, 0.8744273791960159, 0.8997635985364878, 0.0], [0.910202753862535, 0.8571291635109981, 0.9994798447084366, 0.861006626088903, 0.9454289878162688, 0.894042015872049, 0.0809801603342459, 0.08549476135941705, 0.020550642172680843, 0.0], [0.23565754308109896, 0.035209579710755314, 0.05531832564274836, 0.06384409189587932, 0.012884825152670618, 0.009028073571078113, 0.9900812197934477, 0.988412437228042, 0.98557452590718, 0.0], [0.917554138224554, 0.8388698271453063, 0.9625365633177456, 0.06782535189511173, 0.03031893321257705, 0.12261584359471307, 0.998461126790282, 0.8341530919060134, 0.9480826189162522, 0.0], [0.8800591136580891, 0.8953168902558946, 0.8988260612772165, 0.008902208561753219, 0.06600401469295697, 0.12704033465827538, 0.8872669377974227, 0.9594666582405662, 0.8261857657936118, 0.0], [0.9734987438749698, 0.8915180281896408, 0.9163424621441908, 0.8602561095625979, 0.9251820819905656, 0.9917449233518668, 0.1777032593454157, 0.02529752790420546, 0.033312244259035804, 0.0], [0.14939916623915495, 0.13415489915190693, 0.039231663503695835, 0.9481455612298522, 0.8085333362600889, 0.923749808782086, 0.264342988928966, 0.041720651567484175, 0.11337099539067115, 0.0], [0.8617660181350331, 0.9591235389116308, 0.9884216010583184, 0.03975237283105234, 0.045326890038312966, 0.06346292163539728, 0.043138177583364, 0.021187036157012677, 0.03232735916139692, 0.0], [0.09800902930550694, 0.04880410572029712, 0.061853042197262426, 0.9949321763702548, 0.9326131136677284, 0.8703139206715428, 0.97803220107966, 0.9152340471173462, 0.9639851426513932, 0.0], [0.001330749872328423, 0.029087086619783563, 0.12071878252766564, 0.9953311373097528, 0.9756444545946208, 0.9309669173188518, 0.9120052598790991, 0.9208226055096868, 0.8194359305832117, 0.0], [0.09056381872050892, 0.02808212256023693, 0.0927745619942907, 0.9855637597752841, 0.962602817864702, 0.8624974586847598, 0.7626393454016581, 0.9001143798906881, 0.9464618174536747, 0.0], [0.9937139664397372, 0.9423792070576594, 0.8254939885533801, 0.00279578475971536, 0.10270612304450416, 0.10877658646494318, 0.8142152253137556, 0.8577883903558989, 0.9689495022868948, 0.0], [0.9790807266090784, 0.8857030089845691, 0.8590103620478016, 0.24074416042040184, 0.08604570053086102, 0.05104184146681925, 0.16656018656093352, 0.11328044706765775, 0.09448502282942473, 0.0], [0.13629951178166475, 0.04130079833926326, 0.06567191093397118, 0.13784876947286126, 0.2275134283031248, 0.1651791745863419, 0.8576842910575592, 0.952525036825131, 0.9158815591476234, 0.0], [0.12587913501873785, 0.03932360858613168, 0.013491148563069473, 0.961710093833262, 0.9358188419933872, 0.8860661312287895, 0.05502063016897762, 0.030869543429816605, 0.01349102864382839, 0.0], [0.1804145062927826, 0.0658275776621817, 0.08119867791290293, 0.9893622895917182, 0.872492450855698, 0.989267488044078, 0.9714472455948528, 0.8792477914644404, 0.9017193251438768, 0.0], [0.936166564578038, 0.8864728680650253, 0.9909152696658186, 0.00030214454652231727, 0.0649636796816385, 0.001099759206650921, 0.07722406700942236, 0.18287595347270144, 0.005861139124904915, 0.0], [0.23502693897670465, 0.014736966576087846, 0.06263324124934493, 0.0964549938351992, 0.11205607109151357, 0.061845167936823715, 0.9820555827399736, 0.8702481776339217, 0.9480497141940992, 0.0], [0.9029986889334564, 0.8863787023681791, 0.8593231950958051, 0.09560979976048632, 0.09683313279807816, 0.012561319961052954, 0.938062104229506, 0.9581718424966827, 0.8859161154792987, 0.0], [0.10654543681399237, 0.02469199639684864, 0.04323186730402759, 0.9309862640121652, 0.878273503385605, 0.8607300430539588, 0.8814136540159774, 0.9701678785260418, 0.9485065864130048, 0.0], [0.9468784124349148, 0.8710086546660925, 0.9910519562800196, 0.06981720254598356, 0.22178068518943386, 0.05687302680338974, 0.9533833024765772, 0.8747243380094331, 0.9622320402964608, 0.0], [0.9834171351080184, 0.9692366904229268, 0.9274730724067493, 0.11366615008960244, 0.06603317354078624, 0.0906285468365956, 0.9639637732285598, 0.8310814096155528, 0.8422452221674339, 0.0], [0.9548142196653728, 0.922550430389456, 0.8937151337211797, 0.13581321112801678, 0.062267919654354575, 0.22124846860188174, 0.8759145673158087, 0.8663071016771491, 0.9407450694409392, 0.0], [0.02383043950082114, 0.18213305278996333, 0.06032185981382609, 0.7677339806803961, 0.9425720892063708, 0.8122892194015748, 0.9227774126216056, 0.9524861148157332, 0.9493668269964044, 0.0], [0.026926414545402143, 0.05565197738976716, 0.16975253061334172, 0.05690670648578405, 0.0789184587605337, 0.02449536836293368, 0.9731460145783064, 0.9166615479688122, 0.7991345080559775, 0.0], [0.8522768343076992, 0.9627366961091436, 0.9805000596163294, 0.07719629947965345, 0.11270655168828073, 0.04027490032720973, 0.1519179414243215, 0.18266307980067567, 0.08578396467126635, 0.0], [0.9319128931845718, 0.9652945713105754, 0.9737727646189636, 0.9851646650913288, 0.8224414978147954, 0.934033796079036, 0.026314692628308458, 0.14484486859536513, 0.0972939880871706, 0.0], [0.9103302517761402, 0.9000396071441373, 0.987572973905862, 0.9928903357542074, 0.8047127422881115, 0.8296320221423749, 0.09927765188762476, 0.15597117492421486, 0.11896088770838675, 0.0], [0.16203199509541286, 0.019586695975621515, 0.062338390522104825, 0.8858236673692623, 0.8445412396492943, 0.9922275938531394, 0.002507562056202411, 0.184960191655179, 0.035115898318221775, 0.0], [0.9612595381018656, 0.9779561561536848, 0.934422672063808, 0.8882681087059047, 0.873504277923367, 0.9503422021230116, 0.13895622890431675, 0.05016205928404284, 0.129349229630592, 0.0], [0.1708921438952109, 0.18084896989251828, 0.14405822471784355, 0.004445357962734621, 0.08402838003597696, 0.04164753220482256, 0.9291423160807656, 0.8708759385325259, 0.9656253705384384, 0.0], [0.9704510765522548, 0.9491688197928764, 0.8916230888950677, 0.1173930456780929, 0.028603383198346124, 0.05744209491597205, 0.03018360245133356, 0.07977518118890667, 0.13639732155240122, 0.0], [0.06426010594530901, 0.20653250035618625, 0.044595575405989164, 0.9440881987426992, 0.8467042869733399, 0.8913413661833987, 0.090681560636104, 0.04327699384351669, 0.1067488309562245, 0.0], [0.8315227783279697, 0.9445396518407186, 0.9019393931189192, 0.9670398486375572, 0.8131700059737783, 0.9432819725147498, 0.0416021393611076, 0.08448460072220236, 0.008775404733630069, 0.0], [0.9742624952980684, 0.9210753084225336, 0.9544289746617044, 0.9317876667039175, 0.9103520731349888, 0.9252542790125056, 0.12024815846139945, 0.07284343651635232, 0.048460957416981865, 0.0], [0.09930756058125084, 0.097190924183639, 0.12463427142876232, 0.866608250930592, 0.8553455609157837, 0.9425840150554669, 0.1153538409946686, 0.0034440979456502856, 0.08744502091883763, 0.0], [0.9420876385493138, 0.8993665415104644, 0.9007145284445263, 0.23264947785796164, 0.051213380231208035, 0.10129617454201134, 0.8656621300827341, 0.9002813587623126, 0.9869735858982396, 0.0], [0.022357956055846936, 0.0681901828047572, 0.030587598930167895, 0.8969601858861704, 0.9684862491824971, 0.980997935267684, 0.09215295241882077, 0.0865342703294083, 0.10868058290461603, 0.0], [0.9776918052772066, 0.9377777610155706, 0.9504503720888726, 0.9371506557682214, 0.9404349049526229, 0.9768537279055112, 0.0893890960386803, 0.13138853005147644, 0.003636474968973429, 0.0], [0.8959783277820942, 0.9336125856524612, 0.9388089852824296, 0.9220583847297136, 0.9853223302599337, 0.950789309318498, 0.13666272603418667, 0.18985884425100796, 0.17898077449792002, 0.0], [0.031050951353097583, 0.01924311454891971, 0.13238867133630602, 0.11990076002418122, 0.11500581410971634, 0.006119039118439282, 0.9920384748164252, 0.9444043988235168, 0.8717789358089957, 0.0], [0.07827579577857563, 0.0038234938356405865, 0.029076270440944737, 0.9478031297431486, 0.9735146828718076, 0.9975439388116936, 0.948787585302567, 0.9755870554224564, 0.925577781965056, 0.0], [0.11302369967076115, 0.11945831663539724, 0.018860397607420143, 0.99976167477603, 0.9830043933196236, 0.8067214398786815, 0.8387148093357788, 0.9413407164084836, 0.9124364954050584, 0.0], [0.9808424982730456, 0.9317811891332872, 0.9787603857404784, 0.031424664427959784, 0.12219864862335665, 0.057574445973655235, 0.9988836823158042, 0.8206178342084267, 0.9682956402590466, 0.0], [0.14450776739438112, 0.1257656116791746, 0.06288289420849145, 0.9991924737970124, 0.90350756769573, 0.8688384759532333, 0.8195230798499518, 0.9789086216672908, 0.8752415613243797, 0.0], [0.04317036609221797, 0.01470743226189128, 0.0657203515803726, 0.910228899604174, 0.9366537962646572, 0.9606267905010558, 0.9098765101847972, 0.9849843335642908, 0.8433495754445147, 0.0], [0.09676444427189007, 0.0009579784089010797, 0.09511593417569852, 0.9525320096006524, 0.9905051465358246, 0.9684399877386296, 0.047245993623054726, 0.16174694142635446, 0.02309178126884329, 0.0], [0.060069873784187724, 0.18373402900594127, 0.05415616098132323, 0.8612633634308829, 0.9947465788685308, 0.9730362068562282, 0.9913615540165986, 0.9234695891517648, 0.9922307394630644, 0.0], [0.014586210164808475, 0.13038528020239432, 0.104886215965246, 0.9889356551071612, 0.8259610314496209, 0.9230033196414807, 0.2468887550333373, 0.1889324677369976, 0.06994783694746973, 0.0], [0.8732855786645621, 0.8657986311270413, 0.9065518264064144, 0.11221026050451433, 0.047659211322238576, 0.16888107939900546, 0.10290211447532308, 0.08657445293661342, 0.10766993098458996, 0.0], [0.01907447085253174, 0.18305076899923, 0.10189560117159943, 0.8433157123446372, 0.982553240784486, 0.9720817949694416, 0.8568344137654632, 0.9702564979748636, 0.9242875972160406, 0.0], [0.040681655641763466, 0.10521499636693547, 0.0017869789814657453, 0.0013729775129719091, 0.08609396175830528, 0.007556205897275559, 0.9221408317911304, 0.8728554118789601, 0.9806736753294396, 0.0], [0.15287440700473467, 0.014306595451472663, 0.010340464588183723, 0.9378064447513312, 0.8661434383453301, 0.9317552830162672, 0.9180401004018977, 0.947743227508716, 0.8279194503934184, 0.0], [0.9447426797338256, 0.8239856223531125, 0.9518632226472632, 0.9471029917437584, 0.97539495219466, 0.968724831455846, 0.08991676818881894, 0.07458466916704536, 0.2815255176137237, 0.0], [0.12207841912819155, 0.0720494596181613, 0.15773090953484264, 0.9231414437859236, 0.9681517805886743, 0.9111207010628652, 0.9318456656415872, 0.982081715632557, 0.7763474392217078, 0.0], [0.793868891081126, 0.8516245805466324, 0.8878978655834584, 0.028693263818156445, 0.02811818592708204, 0.03466413393315428, 0.9501713483477199, 0.8149441998482415, 0.922597300826596, 0.0], [0.04539336405944477, 0.2117038048021124, 0.19958750604990308, 0.8719890208112722, 0.9433636692544228, 0.9602657375683964, 0.1136706846540214, 0.10807405066449788, 0.14725557734949826, 0.0], [0.9812199746586756, 0.9180994875387792, 0.9167961118889486, 0.9747872435788424, 0.9746043551054728, 0.8896283420908083, 0.030116655513283973, 0.04742385746973987, 0.09192268722494977, 0.0], [0.8857339492926233, 0.9686783361573096, 0.9649266237112416, 0.8642039556353347, 0.9954718648917338, 0.9395514547566008, 0.2085548140165256, 0.15590283313705044, 0.021840437094818057, 0.0], [0.04264638877420366, 0.1297998088744537, 0.0005139331761936554, 0.9958908651258228, 0.8867598599729166, 0.9104672039630296, 0.2940829242956879, 0.06600411151371606, 0.10414932645772078, 0.0], [0.8938160597634408, 0.8759315839669697, 0.9871968891409916, 0.057874116733375676, 0.1056112454007165, 0.07248701302923573, 0.1708676756461856, 0.07483026039805113, 0.06880390581405435, 0.0], [0.2334974431847075, 0.1350917034947747, 0.12033449574004325, 0.2208508782342233, 0.13330846583520414, 0.0614258522537292, 0.9096391661359357, 0.8701046573663149, 0.8794116700175556, 0.0], [0.01769743519830694, 0.046051824504217916, 0.04143481048596828, 0.9181550211137692, 0.9877110838309936, 0.9823953232213618, 0.027020394500330662, 0.06724192340109837, 0.12131201044811978, 0.0], [0.8498073778989235, 0.9974154857649241, 0.9309776916709256, 0.07559336745701922, 0.0857866963570873, 0.11045079488597834, 0.9485113241308876, 0.9928627218302258, 0.9494251493097429, 0.0], [0.9594427428853188, 0.9507498260336716, 0.8709559324908724, 0.01775952292359634, 0.08002695774085689, 0.11213952400715932, 0.9950746510423572, 0.9181606470720995, 0.9494682372396008, 0.0], [0.9120479105582407, 0.9881913947101632, 0.8755741927270471, 0.03626471188830458, 0.1011604223423042, 0.049852378394852334, 0.8411167242038688, 0.9320907735197524, 0.9529710968857449, 0.0], [0.01812327501857245, 0.061606679972511624, 0.04571543826939314, 0.9553056879239076, 0.9690914761859564, 0.9907700257339594, 0.9277044269571584, 0.9034554101367636, 0.9747128374221854, 0.0], [0.9192694594793032, 0.9754302492380192, 0.9430300818918363, 0.8864328734143329, 0.8001356155506651, 0.9927392886071956, 0.022027302159541236, 0.04121542263682298, 0.02861150373421802, 0.0], [0.9582907076014298, 0.9123918857419386, 0.9984231251585288, 0.043826019564597, 0.009240357352888556, 0.18564970489948365, 0.06086703146209967, 0.01975703126111465, 0.008420115411827975, 0.0], [0.9262512278790966, 0.8586628797610572, 0.9008327021880492, 0.9729827480373029, 0.9567512278513284, 0.9047835700470452, 0.16844191044198598, 0.04347098608713529, 0.07579786382099105, 0.0], [0.06885602885234895, 0.10144691883605277, 0.16686320517064784, 0.8185540642647808, 0.8726325397830259, 0.9531823067536132, 0.003476784768730966, 0.21511246910751272, 0.1547336376320696, 0.0], [0.960736785330972, 0.9463103478045172, 0.9826483574810344, 0.9567340484823688, 0.7813711348304471, 0.8366998212663371, 0.13196450384901312, 0.057363151800948524, 0.1873639551266746, 0.0], [0.06363491340963444, 0.10851412890573978, 0.06909553324292292, 0.1850425642661588, 0.0378055034235032, 0.025022721641029876, 0.8513573390855241, 0.9453039246389112, 0.9378266888986996, 0.0], [0.9347108240115154, 0.9650560062667752, 0.9782555350056265, 0.13647028609206138, 0.18160112542802426, 0.1346761242878519, 0.09892597420190484, 0.03943356401700263, 0.01557127554189049, 0.0], [0.9027664064281844, 0.9121643602908924, 0.9984444737121108, 0.011490973539392586, 0.10710548271145201, 0.11325591319946278, 0.9686179497967458, 0.990804337841409, 0.8981874906670231, 0.0], [0.05255155067063258, 0.1083867635473916, 0.09164995733308502, 0.9449020124517, 0.9674842747894288, 0.9953281934379764, 0.02884341449470908, 0.03317228328797793, 0.11730421618971405, 0.0], [0.14477171002383782, 0.15205639503865692, 0.13412535310383075, 0.956134595639394, 0.9816656205644428, 0.8325138161146984, 0.986466550015238, 0.7349064169911383, 0.9977613624350646, 0.0], [0.9687975099792968, 0.9905887642278552, 0.8697873813543973, 0.1144687167449746, 0.08662925875329575, 0.0336051535556627, 0.8426185345331162, 0.8554077547532615, 0.9430211090792764, 0.0], [0.9898352313365048, 0.9945099919289602, 0.9997635134559952, 0.8886243619539046, 0.8666470441532402, 0.9373869073275478, 0.009858920508783215, 0.0007521873149215495, 0.1359552824888146, 0.0], [0.02194661758522215, 0.025295992536543358, 0.05152402892890673, 0.20813301923647212, 0.07616916248135948, 0.05257262486050816, 0.8647994590282159, 0.7572137531216507, 0.8023918743698021, 0.0], [0.8986147051779194, 0.9488054276687276, 0.9369080275890936, 0.8986556955003192, 0.9630615765505502, 0.8653778157098473, 0.04498814401690826, 0.13014246843834726, 0.0504618275826941, 0.0], [0.14045031627286428, 0.016208476424560903, 0.06113476610333962, 0.9659577918950988, 0.976999051147044, 0.8798201119303939, 0.9019569561936741, 0.8943741582049012, 0.9565170364725708, 0.0], [0.07073393551475328, 0.011292840452759231, 0.033886788304407583, 0.9609228691687028, 0.9645240451112392, 0.8558666860147566, 0.985454237694934, 0.9345149820184896, 0.9397890921547392, 0.0], [0.9858946205796888, 0.9376058393196396, 0.9476559861378998, 0.8038579335479028, 0.8288227834331717, 0.8758567655132803, 0.11468489494915507, 0.16596619430919238, 0.0382295716021967, 0.0], [0.06765209403796185, 0.042133090036983435, 0.13155392719175424, 0.0417109893373368, 0.009957962182514005, 0.13125657709877755, 0.8236381965870515, 0.9229531494546386, 0.9185074636117799, 0.0], [0.9846400168998956, 0.9804199387160478, 0.9328395897534378, 0.006899357001925974, 0.15528032344601894, 0.026632091211340955, 0.047506925367317016, 0.248664216581284, 0.03812446975266686, 0.0], [0.9449908415426679, 0.9682317807637032, 0.9371433791358902, 0.8198236206245553, 0.9854118035629674, 0.8549342174315228, 0.1007018177780778, 0.07859594761624357, 0.16649795636866138, 0.0], [0.09686696171091264, 0.07896127871299394, 0.11883305920147767, 0.971377005411934, 0.951160677355558, 0.8954202352625249, 0.04744411158595623, 0.05796700490587413, 0.07197884315243057, 0.0], [0.1588994655380139, 0.09693752296334772, 0.0904361062972092, 0.016963624243472863, 0.15189814113415678, 0.2404508431461607, 0.9560179429872856, 0.9848605720739829, 0.9766967664308877, 0.0], [0.9707947839574256, 0.95163259247427, 0.885557175643934, 0.033486315262957284, 0.23697571345108498, 0.05144138318377054, 0.9886133927757188, 0.8010439832685988, 0.9369557011169242, 0.0], [0.15029318837032446, 0.09179840281110598, 0.03914433587584841, 0.9443043568902908, 0.9893537328215108, 0.8274178892328784, 0.11528073729675707, 0.020362691951021628, 0.021851126598287838, 0.0], [0.01723598311483103, 0.05679648586396666, 0.038738493615422816, 0.9282489073141252, 0.9593010321987362, 0.9523966213611008, 0.8732688815325533, 0.9615463198834848, 0.965921303020294, 0.0], [0.9708123429459351, 0.962776313505062, 0.8696366601953246, 0.2267379422602046, 0.007360338450506994, 0.03618594418356942, 0.09222064247932364, 0.0740994957395772, 0.1797330113327366, 0.0], [0.9739969631023616, 0.8646009584970852, 0.8786655657033386, 0.10913336765298896, 0.020992374788244037, 0.02255435509380697, 0.8600284837578225, 0.7853495281644979, 0.9980491148572634, 0.0], [0.06876278552246025, 0.05410430956681818, 0.2233245450802791, 0.8985994092686376, 0.9146464958183862, 0.9841920235372414, 0.04564592888736474, 0.048921568905152334, 0.05447631961070597, 0.0], [0.03630734911262845, 0.03724321041168968, 0.13843570023966276, 0.8465976443527246, 0.9501276329721678, 0.9047044474427184, 0.01823133491764916, 0.2072237768124063, 0.002176055412677894, 0.0], [0.00965937157408572, 0.046027737019728863, 0.10005314579353962, 0.966392029658584, 0.928203073188372, 0.8811969184611368, 0.999550407305124, 0.8519485443910443, 0.8056533897394332, 0.0], [0.08293820156845097, 0.08487944334890415, 0.12360049158566927, 0.8922243139812017, 0.8831589706326165, 0.9933021940554384, 0.13161478212260574, 0.03804315453081788, 0.12810716762105875, 0.0], [0.18222053832211665, 0.08134309305265539, 0.014878840545403312, 0.9360910724923698, 0.8288615215595301, 0.9823656371798184, 0.7745847909767449, 0.9040753178714444, 0.9724624762310816, 0.0], [0.9929190317703036, 0.9409945312744824, 0.9449062070796368, 0.11532276600278825, 0.09861475505573078, 0.0025654845351837795, 0.9695735164982614, 0.9703440246302716, 0.9992592291239968, 0.0], [0.910347524631248, 0.9557137902076924, 0.9284821060993728, 0.06489182606532895, 0.027337652287564827, 0.06235650166831325, 0.9968897782125904, 0.9590421177927316, 0.9426118285016236, 0.0], [0.8297285765571994, 0.7865955374292708, 0.9447125972973468, 0.15374205143900946, 0.1487160574505677, 0.21117541545998733, 0.9244205252227892, 0.9659459593583916, 0.9576625375947434, 0.0], [0.8081518112545731, 0.9917536555753068, 0.8433850679056849, 0.00263827348536901, 0.030809584217454163, 0.0004721261504389533, 0.9027195529820338, 0.8919284315162245, 0.9362544919017696, 0.0], [0.02707553150823273, 0.2399392017207129, 0.04825337384997138, 0.01815173293451389, 0.03698897895409058, 0.12485276047520975, 0.9833632598856668, 0.9892860696881882, 0.8366871952679067, 0.0], [0.09443303135963843, 0.058757879278165524, 0.04345875351961531, 0.8851377605814027, 0.9705591046124432, 0.9524750330502711, 0.09239204859017427, 0.06803984740448372, 0.11038628950394838, 0.0], [0.9819400405755156, 0.9019157921818572, 0.9896334245872024, 0.9145771940834596, 0.9509027652092332, 0.8394100692804154, 0.01096868157207028, 0.0017665241121273278, 0.08995087048626473, 0.0], [0.9152896905643106, 0.9347700216468908, 0.9149333736796056, 0.9713085043134267, 0.9073077086576362, 0.8840864248591759, 0.027467533060592568, 0.035844401514850806, 0.14910508351492374, 0.0], [0.0698661813981563, 0.08463997507253138, 0.013481416389066784, 0.8813014130729846, 0.844307607894982, 0.8986851120163432, 0.9953989248683496, 0.9876327959619456, 0.8783031947166653, 0.0], [0.8853823313715781, 0.9801217526485841, 0.9917365864528128, 0.04630684841940794, 0.002963134987309363, 0.0444811124873018, 0.9519929396778234, 0.9115788434811783, 0.9648993044199871, 0.0], [0.03937550863078414, 0.02570147102046462, 0.00781829768912592, 0.11812453733301452, 0.062017956710154976, 0.1809711933602689, 0.9710280916752289, 0.9826261024815764, 0.8149251214185845, 0.0], [0.9182422366774662, 0.8823209562176506, 0.8810498428149223, 0.1375126812756434, 0.17328230114503915, 0.05293072883554977, 0.1836389544889405, 0.08460687032395782, 0.05013342925538003, 0.0], [0.758214220104468, 0.8265500784686582, 0.935080472710762, 0.8702513601817343, 0.9914892237808296, 0.9991641971264325, 0.0429633009929024, 0.06351963450855952, 0.0390591201018785, 0.0], [0.14486755783395167, 0.020913641119457173, 0.045924734332791615, 0.967475192737162, 0.9461181018846956, 0.8875504642321329, 0.9362139479235698, 0.9880323811460038, 0.8427661704215765, 0.0], [0.954829455922254, 0.9425868801373976, 0.9918623534710586, 0.8905014775542895, 0.9165509460546128, 0.852390194275251, 0.05569964621306143, 0.010449892862759864, 0.0005037881747126813, 0.0], [0.09278142489348733, 0.2482265120302543, 0.03927461875647048, 0.9862517264426424, 0.9066757747280778, 0.9629728802077095, 0.035538737673848075, 0.042951515780572734, 0.06120917560326152, 0.0], [0.9059486574615588, 0.997698405190027, 0.9032899861447324, 0.8977847142673114, 0.9725317884955236, 0.9450006183305708, 0.22085535393978767, 0.06681221127150519, 0.1321829732654883, 0.0], [0.20191859834862946, 0.2895884999306151, 0.3045816295881735, 0.018578429778335997, 0.008508735270394153, 0.12235313912976635, 0.8313009049572271, 0.9556203117206804, 0.9523512914824824, 0.0], [0.9455479025796872, 0.9230846717514004, 0.9476038568553152, 0.06445375922013179, 0.10702127440221364, 0.08054163173991326, 0.85372186623312, 0.968454419820091, 0.9399397608082029, 0.0], [0.9306016006246358, 0.9680071231125184, 0.8516504855333953, 0.8410016428135401, 0.8962464921646068, 0.9600541279344432, 0.13097814198367658, 0.06414602605616206, 0.008144271783015045, 0.0], [0.9794064571764683, 0.9314478538951746, 0.9635754705766568, 0.04376160625198159, 0.0070184251598773215, 0.03174680772594935, 0.9504005412003887, 0.9678618088999048, 0.9695289428719748, 0.0], [0.07268289008221222, 0.05127159636152298, 0.130126729736863, 0.046225474130824, 0.041657967807834484, 0.010793910327111664, 0.8798283645066277, 0.9474698064547936, 0.9555090522129484, 0.0], [0.012445649467857976, 0.09765297472045198, 0.03126710343813433, 0.9594547208189336, 0.9649084678609, 0.9052967801365176, 0.03989112657935751, 0.054103898275926016, 0.031054548777709693, 0.0], [0.9237433211331694, 0.8675901226630875, 0.8628754835178086, 0.8617748671185094, 0.9513676488422674, 0.8797301330910599, 0.07687796388157545, 0.046827664531868964, 0.1274091610650683, 0.0], [0.0024297732650121547, 0.03886615720933681, 0.05608048738707394, 0.9618805044970103, 0.9938764187634688, 0.8746378888529449, 0.8845679232087078, 0.945942786728836, 0.9092812148106788, 0.0], [0.10807602238939616, 0.013221500559991372, 0.03868987541003357, 0.03782213843961087, 0.0513961217943241, 0.0693129229391145, 0.8919271921506519, 0.9822058274058192, 0.9014124266429596, 0.0], [0.023971363280591084, 0.05684260186109119, 0.1046634855622514, 0.00495907462005839, 0.08107335825568003, 0.1179553369918875, 0.8555887668812918, 0.7903114432597156, 0.9387686964541776, 0.0], [0.9040342512161036, 0.9735519642208434, 0.9802226064291136, 0.976372339755026, 0.921700379463266, 0.930231697182825, 0.10901984689461723, 0.044448525984862375, 0.025529536401420302, 0.0], [0.04681763955567038, 0.03408357503058633, 0.09684231101661876, 0.05510444765725563, 0.0977668841478986, 0.08641953311913743, 0.8737215659476864, 0.9893308926828444, 0.9132202823072012, 0.0], [0.965382015853342, 0.9863529268679272, 0.9702682887963104, 0.24429491948652216, 0.06307837370731577, 0.052966100252166574, 0.94210065291962, 0.9563751519147056, 0.879060323120994, 0.0], [0.963626335969424, 0.8635651544724248, 0.8958036285318441, 0.17341953371139165, 0.10521739572774463, 0.04474839074425357, 0.8135134207824041, 0.8482251939003198, 0.7894953476147704, 0.0], [0.030469819079108007, 0.09031833418907896, 0.15685132218060205, 0.8521662743365601, 0.9635496944846486, 0.8376775055851582, 0.9840982709160456, 0.9323275775989271, 0.9404480337665366, 0.0], [0.15356375949596213, 0.05062601495247485, 0.08153276817894058, 0.056834633274753736, 0.0938944339849184, 0.012369894709666334, 0.9451962294705896, 0.8224097672877478, 0.9577620708494556, 0.0], [0.03110548036673008, 0.06801096630684915, 0.02130369587650954, 0.9081597271783112, 0.8567737530623939, 0.7836487506856118, 0.8462701605530746, 0.905628411034176, 0.8832593003830777, 0.0], [0.012984181368626429, 0.10100603490703558, 0.04431819563154761, 0.9823718769943453, 0.8983944263757191, 0.984226611162686, 0.8371862482814446, 0.9819293218950322, 0.8924518525279335, 0.0], [0.06980705007483684, 0.0416541713833027, 0.0824127538195372, 0.9069986455409896, 0.9331142293865856, 0.9931712376396504, 0.1944987136065021, 0.004008760243217728, 0.029411432871494093, 0.0], [0.922776592716984, 0.9087029645178679, 0.9093435095443912, 0.8997278420729115, 0.8869966337142625, 0.9671122285689174, 0.1182422876862685, 0.012219317188211929, 0.162641800265353, 0.0], [0.9507775348341192, 0.9528390696038144, 0.9612488551483456, 0.9438933531659129, 0.9938466391067218, 0.8716299099690545, 0.06780152479951954, 0.1254214344061656, 0.05858825467143618, 0.0], [0.11316867523535012, 0.13057414661266953, 0.04132195728539473, 0.9412649753451079, 0.9287242048918176, 0.8605491378820864, 0.8920262772385901, 0.8998637922943564, 0.9311347658911364, 0.0], [0.8870842996368439, 0.9694380135750738, 0.9786121554505252, 0.13161727242876295, 0.11602462025202452, 0.08542618621076425, 0.9847163538864814, 0.8881498157484361, 0.9446859210166676, 0.0], [0.9460210262621208, 0.9700734000082316, 0.913684292348888, 0.07171617822522221, 0.22576079320490397, 0.0848922781821999, 0.08633406036089937, 0.03711816274296078, 0.0025621745125935114, 0.0], [0.9590478312914124, 0.7765530432768768, 0.9386502142777936, 0.9166002033041654, 0.8820894397974552, 0.9553400759687496, 0.10035175708525207, 0.008977820812888799, 0.0569384740001288, 0.0], [0.10716420626140344, 0.007635899453458677, 0.012381576357356166, 0.03143045708155797, 0.06081271359287741, 0.031616324578152534, 0.9794388368725134, 0.9088884751954798, 0.9991853428071542, 0.0], [0.8936890538214729, 0.967653037181448, 0.9436509017054456, 0.9764188283414958, 0.8968752120587933, 0.9254371983275912, 0.04628453257939333, 0.04271471233246914, 0.00261746423266071, 0.0], [0.06582961870091092, 0.018873090506383656, 0.11830652405182493, 0.9108534277687099, 0.9722673446977312, 0.9768604554926468, 0.993926787752872, 0.9949279944852316, 0.9820512619859044, 0.0], [0.9665813056380088, 0.907592448325523, 0.8431135317658097, 0.15465284389100895, 0.10582385021870973, 0.011929928389231651, 0.9632554768037406, 0.9736862421537864, 0.8982728465271606, 0.0], [0.9239303466147728, 0.9162741695787726, 0.9788486313670088, 0.13960439034824831, 0.10972188747427647, 0.10267558929503813, 0.9535100287925956, 0.945902019533402, 0.8983896927918942, 0.0], [0.014674643989364924, 0.1411655291606496, 0.011307555551801171, 0.11771944320331372, 0.07713036300476929, 0.06184207667003176, 0.912453320883065, 0.9959822044679087, 0.8275219937409773, 0.0], [0.0127008260240708, 0.002896598185626465, 0.09456658586573558, 0.7626826535993159, 0.9621432027113286, 0.978646382747429, 0.9542622631017852, 0.9921915903732882, 0.9960642218859947, 0.0], [0.0311035056109088, 0.027206543520864896, 0.043237191501152836, 0.9772998205267864, 0.9833542399479228, 0.9804990218319469, 0.09347963676805436, 0.061706132825502434, 0.031056278756624013, 0.0], [0.9964264344033926, 0.964534284506718, 0.9314442183577376, 0.12034638021604364, 0.0844563967684544, 0.11619665459352665, 0.09176511458663733, 0.00013101555488516134, 0.04121474816482025, 0.0], [0.9457639095867886, 0.9598388758337608, 0.8459411528269468, 0.9799803449025334, 0.9376509233571486, 0.8351551753984052, 0.02142572855751688, 0.10303578878373244, 0.14569446989683765, 0.0], [0.014350930921353559, 0.07786773399665699, 0.21690399605227048, 0.12157427667310285, 0.07328882055676465, 0.14401144747097036, 0.9778909322934644, 0.9874482879356328, 0.9329454459524972, 0.0], [0.9132167753343512, 0.8189295935204229, 0.8684152087561825, 0.07824457273653422, 0.04698314986584296, 0.0131694898741569, 0.00854775367001622, 0.17946824865502894, 0.1567640195383689, 0.0], [0.08440400728012931, 0.058468842469106976, 0.039257342043828164, 0.7856351027989329, 0.9490787624927765, 0.971809330658236, 0.9639501784579282, 0.9127657055158992, 0.8632299648088864, 0.0], [0.8901023122305771, 0.9998185644731352, 0.7892562945580648, 0.06256274063500293, 0.005991074464380979, 0.04388412566681195, 0.9860306262692732, 0.9226999798063876, 0.9715705200871536, 0.0], [0.003096791787097701, 0.04662760949754319, 0.14113333065122735, 0.9879165720349636, 0.9935294829258958, 0.9552208078103508, 0.989272175111405, 0.8730090433605344, 0.9359954775940198, 0.0], [0.016297757234560818, 0.050396395561264615, 0.22224852578385929, 0.08267267233233946, 0.007508483650673635, 0.06001391420485017, 0.8902990430049772, 0.9290902594320009, 0.9888800306360918, 0.0], [0.050963520625340264, 0.16323321846674632, 0.07372653040317824, 0.9779778933003644, 0.872838284615313, 0.9511880331351292, 0.8992572602993196, 0.8403225161388291, 0.8902221310171379, 0.0], [0.02787657564532804, 0.09566563258518247, 0.05351871451759959, 0.8529438820586049, 0.9380959515198994, 0.9308997359089162, 0.05680933488865578, 0.18333094214627602, 0.019972692095964764, 0.0], [0.0658625519487057, 0.14675554839980715, 0.1054530319252462, 0.9968749708000016, 0.9914296531042736, 0.9699895964648564, 0.026175182205678733, 0.10891259049894693, 0.2746819356327168, 0.0], [0.06965069455094132, 0.0005524773087588163, 0.026173249865459287, 0.9803737217927679, 0.7732775034462678, 0.8399524308674502, 0.08018462559848583, 0.0009309574755665716, 0.09385541150519444, 0.0], [0.034449723268270636, 0.19647109206959365, 0.05350553971504406, 0.716540305581861, 0.9414731267187358, 0.9482519646662674, 0.030764396617749618, 0.07238574406546815, 0.05338177162771606, 0.0], [0.9393387271500246, 0.9803675838670828, 0.8923424884894995, 0.9862650248080002, 0.9539582758139696, 0.9070957649906816, 0.013629450795878762, 0.05107573809934475, 0.000448600277155358, 0.0], [0.8648560475204583, 0.8758877574134979, 0.8274235173186627, 0.04022515381454186, 0.16079794078571982, 0.1423022352038934, 0.9464008736101072, 0.9690623993974248, 0.7939006508435551, 0.0], [0.9673154008420134, 0.9410448757222396, 0.9500202573693021, 0.05828896100079343, 0.17553692820689062, 0.05145587679145922, 0.956149146004664, 0.8066989734970998, 0.8953794970284261, 0.0], [0.0071795996221005595, 0.047784732459267024, 0.05651418866158486, 0.9501964898700089, 0.9823988041306168, 0.9375000715973056, 0.8027780790965091, 0.9123742462503558, 0.9427738879266329, 0.0], [0.9207032273736108, 0.9875994701007376, 0.9434251182002532, 0.05790900759346008, 0.04148105488859233, 0.10397512048340694, 0.038757324050085085, 0.12716448725104013, 0.05782349268904902, 0.0], [0.0006205802911501296, 0.02975071332232168, 0.09595206684828222, 0.8894680345433601, 0.9166876022996476, 0.914504570915002, 0.09763725213460206, 0.02554905276443703, 0.05825288632803057, 0.0], [0.02215325296683517, 0.06750221020772178, 0.08133323099051648, 0.10464541289024536, 0.07597384663394864, 0.15126786175856535, 0.7487478088455135, 0.8776488371022299, 0.9812808842830316, 0.0], [0.9578170149324344, 0.8504442563743246, 0.9211247957160936, 0.06838887533543743, 0.2534043853582394, 0.008752133006897962, 0.16770728901342782, 0.09175608303172902, 0.01757626341910399, 0.0], [0.2089919194570091, 0.05927419041956865, 0.04426657990577256, 0.9706487809406495, 0.9458493422600744, 0.9866806880351264, 0.03835787372127703, 0.03208394932692892, 0.0763403716631203, 0.0], [0.947522491224004, 0.960750980447966, 0.8963691134706747, 0.02791773470179978, 0.13999696941106798, 0.03458510961155916, 0.03217260599031226, 0.0068934064351098365, 0.02514242087860372, 0.0], [0.9648452249521396, 0.9780568169294342, 0.9607362533807728, 0.09101191313764176, 0.01131641713241689, 0.1625980768802881, 0.8998237057292633, 0.8456423024740112, 0.958367728207348, 0.0], [0.06395323934661178, 0.15829452390156962, 0.01365562139715427, 0.9440639784857144, 0.9199534928554264, 0.974170950813924, 0.7957444541772323, 0.9859516766328124, 0.92144230907389, 0.0], [0.07937007198298572, 0.1531707996242809, 0.04943422511183426, 0.9066008429265058, 0.9949749724493714, 0.922464901244062, 0.8655204906338687, 0.9501941411866508, 0.8270536187645676, 0.0], [0.032715243996142784, 0.11096245754405544, 0.16209348496288145, 0.1071812192102434, 0.039677689027720654, 0.0812302162996439, 0.8656052155334979, 0.9083473234367884, 0.9413302644105768, 0.0], [0.22108430759751796, 0.1146363693038089, 0.014236604296777118, 0.9465302323089548, 0.9566625901774424, 0.971200157657156, 0.05457798024839353, 0.060049251693669765, 0.09514559066474314, 0.0], [0.8639724317710359, 0.895463019809293, 0.9690541724248012, 0.9360021597356608, 0.927982338946112, 0.9513358387357116, 0.04122169511860643, 0.03396333137068819, 0.1073850836282581, 0.0], [0.8182311559271204, 0.96547123605637, 0.9778021962630948, 0.8806518440825153, 0.927922576828295, 0.9668514388649336, 0.038482024742564166, 0.1412907293760375, 0.060606579345028, 0.0], [0.8862714958041692, 0.9760670029336858, 0.8595252750748787, 0.10413405135789043, 0.08865827087981393, 0.1564890896428201, 0.9927134817370185, 0.9072045767584884, 0.9953233239215492, 0.0], [0.04938682924777772, 0.07481963104204663, 0.027442778544163316, 0.061018770267742564, 0.03707962579115645, 0.13611095240690396, 0.9889283046343385, 0.8641714673455091, 0.9647921723981564, 0.0], [0.95900754865595, 0.9779311938924928, 0.8360452929328548, 0.98019038709011, 0.9320166352915388, 0.9460724209135748, 0.0007177666533758112, 0.07954846984906241, 0.18040942387244466, 0.0], [0.031063466309825725, 0.07149729665536568, 0.11417645448032154, 0.7029416950129549, 0.8170582561717259, 0.9355886021018996, 0.946641063365684, 0.9302302033108336, 0.9906473222850762, 0.0], [0.020977677848088738, 0.07375857453053138, 0.039967329481687006, 0.019842274679926386, 0.18525940345269706, 0.13484272243201256, 0.9433521815875112, 0.9267467489232272, 0.9316556692305008, 0.0], [0.8002697975505296, 0.939042035626708, 0.8911823013197941, 0.006530218559000468, 0.010805109463985224, 0.122203524848582, 0.7368555869835379, 0.9880525581797514, 0.9899286533624628, 0.0], [0.9826018250839276, 0.9785131671956668, 0.9304354769133164, 0.9707792871613028, 0.9265902040398821, 0.9522659258635214, 0.038656667227842764, 0.047220406918743095, 0.06773675767903592, 0.0], [0.9150371769505716, 0.9437554196855256, 0.9772759221745124, 0.10922126345632882, 0.015490773044799956, 0.06304555782692184, 0.09075126841935116, 0.14880726466942049, 0.04880687123017774, 0.0], [0.057019106918773065, 0.009875544850264848, 0.1221278461393108, 0.9694222784057572, 0.9804632402963817, 0.9563202448038488, 0.9647163955167688, 0.979368208658956, 0.9719101356806812, 0.0], [0.008650410309453925, 0.31067264879485873, 0.15061058049342885, 0.14142604909959686, 0.03903899973048618, 0.129051086422451, 0.9255273161771148, 0.7900252984243834, 0.8531806208806869, 0.0], [0.942717882762751, 0.9946977923994196, 0.8363903763677052, 0.10065355766858597, 0.02882050952464498, 0.2193154792593418, 0.8599159329246402, 0.9909895163322532, 0.8740328593148423, 0.0], [0.973676163561503, 0.934791968714514, 0.9016497965555222, 0.0856001456480849, 0.009040372363885564, 0.018367358276702186, 0.07152762552638024, 0.1422456884057791, 0.11362052887935442, 0.0], [0.9775317384891986, 0.854608180977606, 0.8920558812803476, 0.10985942038720448, 0.012654852558869008, 0.17033867629694374, 0.9743915260067592, 0.8437466494686674, 0.8968867898615812, 0.0], [0.9998473015167272, 0.9724802938932801, 0.8836878912418141, 0.018967214594100737, 0.11618438154001982, 0.1647295637815676, 0.050150033931301616, 0.0920156556838602, 0.039397677376318364, 0.0], [0.0915770542727019, 0.1490603745537372, 0.01012857893059696, 0.08290255325439168, 0.14443298543356015, 0.05344608656285818, 0.9270025949854148, 0.8639015197165303, 0.9311295120175812, 0.0], [0.0468028213369418, 0.048369905230641136, 0.11490599209784202, 0.8858617531604378, 0.9798266855432559, 0.8675243210059015, 0.7349339048431038, 0.8788942677327429, 0.9083730448411946, 0.0], [0.9189356302240772, 0.9486738078326868, 0.9944408906681742, 0.8559383362132643, 0.7310795298644732, 0.8501611516823371, 0.042956008430520026, 0.042753271060892585, 0.09524844374450306, 0.0], [0.02652468266293377, 0.1426274027967895, 0.051070588978612615, 0.8272267478924618, 0.9215066333379672, 0.9584034768156822, 0.9259144529464453, 0.9935182793072465, 0.9568700160139066, 0.0], [0.13349248080260892, 0.0478112236383081, 0.08672026129236099, 0.7844823728512256, 0.8841930095218051, 0.8757989469631197, 0.06150991760712316, 0.0610462557747101, 0.006333469722655408, 0.0], [0.8970602153942837, 0.8971051107616996, 0.9698062608911748, 0.11749413338658765, 0.05993005219601232, 0.009287303326087137, 0.09147571836906863, 0.18030503699399272, 0.06575988805119491, 0.0], [0.014271583424504176, 0.05862894289301245, 0.027321472940029547, 0.8916064402854803, 0.9705777078424164, 0.8508824149884171, 0.026380236267617863, 0.005798781277234384, 0.09901886912224042, 0.0], [0.9024796135946948, 0.9516902324183948, 0.8731244917760916, 0.9579452142739108, 0.9357199563093864, 0.9751410090707948, 0.04685144001079113, 0.032768030410646624, 0.20844091955228594, 0.0], [0.9145982797957284, 0.8597786881402129, 0.9051233976114148, 0.7970765079748481, 0.9712612946790448, 0.9978864328272836, 0.2002415408526618, 0.06895885103268229, 0.1362059649083328, 0.0], [0.9579474464836952, 0.8648242388822751, 0.9755370282164832, 0.060100112106668074, 0.06350982368860504, 0.02627543199975961, 0.9694578869429368, 0.8860169535924183, 0.9342490576867486, 0.0], [0.9009580689749253, 0.9691400185768988, 0.9158104020123714, 0.8941720435263044, 0.9284478223657192, 0.9235549498347976, 0.035336430833332585, 0.007695986737695565, 0.0027507388995182593, 0.0], [0.1955851699600289, 0.07162463139335838, 0.1074403830506051, 0.12766197476680466, 0.23882683313329486, 0.1455677724733775, 0.8667596008497243, 0.9409675118725704, 0.9192601259780996, 0.0], [0.05159829066765827, 0.0962550070030555, 0.05151841946065105, 0.8820533326484109, 0.97974784224997, 0.9440390248402472, 0.9617799278847776, 0.8360831131975726, 0.8445844246904973, 0.0], [0.8972553551648528, 0.9667693071878871, 0.9079334099899972, 0.10694920748630002, 0.15635887887844832, 0.06990510623617834, 0.10997419489828568, 0.05764303649036667, 0.10521913257819134, 0.0], [0.9415300820196608, 0.872275918984208, 0.925700277600486, 0.04077845370106586, 0.11891327501947754, 0.00019676258642258214, 0.8889374564995635, 0.8601403438173998, 0.9754607836268108, 0.0], [0.8471717074050945, 0.9710897081441364, 0.8475522463586591, 0.7953590178079036, 0.8685659711189783, 0.9369332887806592, 0.0891717903244556, 0.13392431417214795, 0.031811514158888464, 0.0], [0.9731246639896488, 0.9640947573076972, 0.9409770515812796, 0.1271220006915738, 0.023546623438145228, 0.038175402202709534, 0.09611437107859544, 0.0438162474139658, 0.09785727695683506, 0.0], [0.25363361439807963, 0.03886246303342415, 0.15136540151172714, 0.185004305215604, 0.06583254782885681, 0.21145804942876312, 0.9880993163587909, 0.8496889398263657, 0.945885841394836, 0.0], [0.008225972526555936, 0.03622279921074163, 0.019606827357414442, 0.9462529579710216, 0.94330866589427, 0.9365247227431568, 0.03775213667508871, 0.03725807744574205, 0.1191646157946988, 0.0], [0.09747798981397447, 0.0004304265302515337, 0.08143184354700601, 0.05551867971266482, 0.0701312860224779, 0.07804226609991965, 0.927846956051026, 0.9363041382859376, 0.8997798443270751, 0.0], [0.0004966502399594918, 0.02355308654140377, 0.0053525356228426475, 0.9289954580003464, 0.9379481139359674, 0.9451617146797222, 0.9829321227034552, 0.957693699376992, 0.9821261030782946, 0.0], [0.14011607178812158, 0.029274659479665763, 0.030263762364378863, 0.7646223662936072, 0.9836340167152564, 0.8640596919574881, 0.9909566538835008, 0.8824500538053638, 0.8572402343417275, 0.0], [0.08309075369707403, 7.080784928894585e-05, 0.05829445944307055, 0.9875906867728594, 0.943535048478627, 0.9646697441167104, 0.06924328947465339, 0.08162908269033105, 0.024790640481411285, 0.0], [0.0666102032364137, 0.017856605431403258, 0.0651222837082249, 0.12239166261286785, 0.00011089975940553376, 0.10704690140678312, 0.9653481494615276, 0.986118870730501, 0.8956479505021391, 0.0], [0.9120823094906999, 0.910471143580686, 0.9319978232936884, 0.07044636792596635, 0.06938883478163252, 0.1192909968425433, 0.10342768482365004, 0.15637263484229436, 0.020355913914575183, 0.0], [0.8943747696897888, 0.8372727232649757, 0.9954274703573474, 0.8937543557115953, 0.9454250373683648, 0.9593472528896679, 0.003322705186365477, 0.017570258552749768, 0.13648812788487552, 0.0], [0.0006249845643847471, 0.031151726908609213, 0.05594373974831678, 0.970158802511104, 0.8262471590789727, 0.9405355815599168, 0.9265746772812538, 0.8283864373965345, 0.9279671882769086, 0.0], [0.06429075583853723, 0.125898210015276, 0.1833189889486384, 0.9513878560305808, 0.96819702267051, 0.9360165488976848, 0.9792986085492746, 0.9509622532359486, 0.9899679909090636, 0.0], [0.9429986293686936, 0.9565013171092244, 0.8552143812307613, 0.04567104952563393, 0.012845170167393996, 0.09066659807988213, 0.12463262262293764, 0.0014926426809701574, 0.11449180735358908, 0.0], [0.12529897786614838, 0.027493519954988974, 0.0981576055209476, 0.981183956352542, 0.9233644502023364, 0.8449579194414284, 0.8586743897571592, 0.8172253249226253, 0.9193635746670608, 0.0], [0.004622324496832007, 0.13989760283118166, 0.13867912985754033, 0.9512540247049788, 0.8494056534648244, 0.9722958417354782, 0.07680802550369198, 0.017594017035678436, 0.17358456396806868, 0.0], [0.1779476146651187, 0.08520964018279792, 0.09108241436564156, 0.9083879972609064, 0.902998611438156, 0.9638559220524541, 0.9561849425967136, 0.9145263311595176, 0.9078443143083916, 0.0], [0.03272199586721905, 0.0008980193947100666, 0.0280065766578389, 0.8496902604530376, 0.9370696993548154, 0.8868790065682299, 0.9092625610142204, 0.8559894158090449, 0.9595818668222836, 0.0], [0.9705846717959448, 0.9857121353061744, 0.9432965443672044, 0.8295146773843721, 0.8319830014412112, 0.9720778360743382, 0.1704037482258781, 0.11582465410196867, 0.009945531122182737, 0.0], [0.06253528631101539, 0.05339143439987768, 0.08417973666906238, 0.9028844233044024, 0.8920973507763228, 0.9747505060035848, 0.020191180711000744, 0.017486776394886713, 0.24912036325831466, 0.0], [0.9150225875646754, 0.9915913113364584, 0.8673253633302992, 0.9777638639378744, 0.9240892240724841, 0.9733817126798868, 0.10029692679461163, 0.02174617068970957, 0.13026985267479338, 0.0], [0.023692961970496317, 0.1472910116735871, 0.033846266661075236, 0.9338353687436354, 0.970847093337429, 0.971497413431758, 0.8679771807630938, 0.7816864621490835, 0.943738991815104, 0.0], [0.971543828801444, 0.9165562470060864, 0.7472919276735983, 0.09142365518463684, 0.049669200326834334, 0.1472041859263956, 0.8508357506578936, 0.901536552205506, 0.9764667534577434, 0.0], [0.04713178283025419, 0.20509130176948706, 0.1758217859835701, 0.9743517640874748, 0.9772614443456028, 0.920594653417696, 0.8387338610351054, 0.8448241897056085, 0.9948144880929704, 0.0], [0.9673091668934776, 0.9335406503897198, 0.9155978910942556, 0.030074114057488544, 0.11955442533975395, 0.05023227032896427, 0.07464667087160896, 0.032352015386225966, 0.07334662493031234, 0.0], [0.9330119001338852, 0.9923216392320882, 0.9723232454049744, 0.9824649421992302, 0.9343086831441391, 0.9056089410296304, 0.07954772369725738, 0.02263165854651608, 0.06190636058846245, 0.0], [0.014239465170011109, 0.15915528145247454, 0.11492926941444655, 0.9923137318920688, 0.9209693103742488, 0.8849343612168828, 0.9808414204179144, 0.9978174217351956, 0.9643743823278912, 0.0], [0.9242892810487926, 0.9892607403924428, 0.9475680247737124, 0.9352813122416308, 0.9674624071550942, 0.9482841554252937, 0.07159799063199794, 0.09141033403304688, 0.04860188243314961, 0.0], [0.8650158920718309, 0.8602862274850807, 0.8403444226497899, 0.05330244112499127, 0.02016796957235573, 0.03420332394323977, 0.9161328736681298, 0.997270813743068, 0.9221629418112374, 0.0], [0.982734402432067, 0.9787731829427629, 0.9939804927531496, 0.054482249574607435, 0.029181103288126405, 0.21592531748593885, 0.9228702914576766, 0.995273278706678, 0.9221638497782004, 0.0], [0.8066753004506387, 0.8956621684055647, 0.9224478544174032, 0.9557613962394484, 0.7602938708793916, 0.9661416853096154, 0.1382889275791274, 0.06014189635753571, 0.058109514942886735, 0.0], [0.970496424223565, 0.8279633945101089, 0.9801728178079452, 0.1758959364691728, 0.048955626704048884, 0.04624022185761651, 0.9806755210433288, 0.9948130581023276, 0.8132285287694706, 0.0], [0.03282624598926517, 0.2177017974970676, 0.14746739595588312, 0.8855260928595095, 0.7625344804182738, 0.8437660340806464, 0.8630050768600738, 0.8756613697479901, 0.8098659351671311, 0.0], [0.011519030647124714, 0.1219820775831777, 0.025720005765638917, 0.8534085698352385, 0.8542941995435194, 0.9797855379477859, 0.9789411357444091, 0.9495667104851112, 0.798559447445381, 0.0], [0.9657459186307324, 0.9451740207261372, 0.8625605014842408, 0.07103418970717393, 0.035519088038676774, 0.00314886489114032, 0.098043959235058, 0.08318712197383835, 0.09963893232709987, 0.0], [0.026277957514972573, 0.1829434619462196, 0.007984841455724102, 0.913435171514126, 0.9862111885009084, 0.9205860976708882, 0.9759616161158756, 0.9776996994829742, 0.9616486285444412, 0.0], [0.9844923400078986, 0.9586030711828046, 0.9891263269500004, 0.883027695210041, 0.949764730631536, 0.914504754364916, 0.053124638952600604, 0.03708400243257436, 0.07442016601669528, 0.0], [0.08403982451109815, 0.10830772945164717, 0.015518989345347409, 0.0365973662231632, 0.05708970832897264, 0.07682772007400401, 0.934452843424424, 0.9766545735325172, 0.8539455199110504, 0.0], [0.14881556021984504, 0.09505480611708596, 0.031388804344846435, 0.9329558628569152, 0.973529983197104, 0.9382400311220614, 0.915753370718172, 0.9164991956532629, 0.8939086330029848, 0.0], [0.9212573542608248, 0.8106072308192052, 0.9881642741848764, 0.02446779050736898, 0.11392660400611113, 0.018211030467321532, 0.972715863205506, 0.9379414972709592, 0.9315929947082228, 0.0], [0.1130963372262765, 0.19274937895612326, 0.037352117918183096, 0.11510176663922972, 0.06633192072577616, 0.07149754992312797, 0.9071913776551196, 0.9264987357281878, 0.8984344684001342, 0.0], [0.017796465894509495, 0.11677250982389373, 0.1435790895154682, 0.02891903477503148, 0.00996631248337352, 0.04546869985074925, 0.9756264361930344, 0.8654004172978484, 0.9589186042697748, 0.0], [0.02998722833499265, 0.03758827356288984, 0.16094658588407434, 0.8599769248034259, 0.9891244642060196, 0.9695084233003548, 0.7902124347112934, 0.9449099387651956, 0.928413073423194, 0.0], [0.8080549140191575, 0.8748638542273203, 0.9570945779145064, 0.07909556132583008, 0.014172608962012175, 0.061555621351012564, 0.06760641539378481, 0.0059314162998175156, 0.10273445809569626, 0.0], [0.8393676215106665, 0.9788413275589122, 0.928643652235396, 0.038389580740392254, 0.008897899668524063, 0.04792017566291259, 0.16878605938667576, 0.1676040063304366, 0.048192341513575, 0.0], [0.8978003704703695, 0.891944093969266, 0.8894839966813978, 0.011515138212533324, 0.02911198117432529, 0.05829222207773003, 0.8247396475263993, 0.8038756346167908, 0.8867539335427984, 0.0], [0.027419966132124232, 0.12328925945434242, 0.13471509972641532, 0.05246550042364488, 0.1523482880025869, 0.058883177955336874, 0.9564426280363596, 0.9891552796178124, 0.8480152201902031, 0.0], [0.9628011262713208, 0.9663405386881304, 0.9446881965377306, 0.03346355949550519, 0.05143622311123034, 0.004583610806570165, 0.8989151137882043, 0.8487032007152369, 0.9859422286407752, 0.0], [0.07672030267829745, 0.014450639419972072, 0.02058905822164031, 0.9825539006349876, 0.9337236987372566, 0.9766019402476572, 0.06528878678045512, 0.09805631264798607, 0.11843377545708025, 0.0], [0.05027015352447636, 0.18280688355480626, 0.04258548520450317, 0.9896868822920476, 0.9523266420731408, 0.7084874207428246, 0.8672159303665933, 0.9901883949632454, 0.8218805706073917, 0.0], [0.011510352169834624, 0.0008545202194960602, 0.008893528891095391, 0.1033677602542586, 0.06816721089930745, 0.1230739162388219, 0.8775722858748468, 0.8738064965366011, 0.9683844273950686, 0.0], [0.2627568949010203, 0.0656861248340672, 0.026654334409126117, 0.9902596631317816, 0.968051109166686, 0.9575842381837244, 0.021784208206345388, 0.07022933296287233, 0.025651728614025177, 0.0], [0.956635237566494, 0.9478457506280668, 0.960283191218292, 0.016012949290339043, 0.07843765979403389, 0.07337507217486441, 0.9198551049259536, 0.9929728961850518, 0.9058347473618376, 0.0], [0.10380196694322948, 0.0041726020892936064, 0.0600014178726965, 0.9109792086323336, 0.9270107865451026, 0.8784945969808197, 0.09097649150729407, 0.16277949787984913, 0.11070170257463656, 0.0], [0.8791810463544788, 0.9690930979407468, 0.9434476517380244, 0.9504633327872812, 0.989589243372504, 0.9248294623122733, 0.10253202160245388, 0.04696244474436198, 0.036425699530972536, 0.0], [0.9052711268620122, 0.9792441085800948, 0.9130346492651694, 0.04112375128756375, 0.049367061907098886, 0.1353021554947621, 0.9608863277452716, 0.9791501877563714, 0.8795451922238048, 0.0], [0.9588808118656824, 0.9722745487119816, 0.961674643530304, 0.14893284356242392, 0.17807825955833512, 0.14312740605722069, 0.02780929877617921, 0.15263899140117987, 0.09997324021939556, 0.0], [0.9281972696308469, 0.8247370163472679, 0.9876066623607774, 0.2799541866722601, 0.08040035925388839, 0.0310519038957187, 0.9827417410861844, 0.945542614799096, 0.9506047526955188, 0.0], [0.9016720013005064, 0.9867094636839662, 0.9708449191786996, 0.8952721192873571, 0.9115746293857552, 0.8987135959138508, 0.01416920154024526, 0.06776829498840152, 0.08194765674580345, 0.0], [0.9196980628722062, 0.9054312927786178, 0.924928001598783, 0.03867825009050588, 0.05937614140194805, 0.020609651020020558, 0.12056916444548788, 0.07162363677340741, 0.07879538959700925, 0.0], [0.052154792709987435, 0.15276907103518692, 0.03507674380211944, 0.9938491065889836, 0.9333158104759468, 0.9326696452136156, 0.9329539465928578, 0.9267159877992851, 0.9288145412108688, 0.0], [0.02633173931877873, 0.025394661362295696, 0.122706119855325, 0.8695473248358683, 0.994815998849792, 0.929219576801846, 0.9841214401482392, 0.9456161629103936, 0.8975327464707438, 0.0], [0.9815594711825252, 0.8823543024296764, 0.7678769062750255, 0.8813951838721954, 0.9401667281106368, 0.9994620808067712, 0.051824685655188135, 0.13213287045691552, 0.08322527738027308, 0.0], [0.0714663032271635, 0.11718617068125756, 0.17247664392602433, 0.8657133191932175, 0.9445196178710616, 0.9724869150080676, 0.025530081895408646, 0.007786726580052972, 0.0032241579101084045, 0.0], [0.9178341440168454, 0.978131908424644, 0.7667949931223117, 0.12054715097891885, 0.21657745446447346, 0.04697093255627294, 0.9974607235844132, 0.9079981259366738, 0.9269484027282826, 0.0], [0.9223078953604488, 0.9242591585266546, 0.8457903533573412, 0.0035904822405333765, 0.00020387538379194417, 0.03226675795676129, 0.9891881517145409, 0.917352896296442, 0.8663487798949705, 0.0], [0.037534540063965685, 0.06489185480105555, 0.2874650616165894, 0.17693032170123155, 0.12103246384875024, 0.07820722761490018, 0.9279544358007152, 0.9304869612773298, 0.9796673190116084, 0.0], [0.7637182809124963, 0.9777958584966759, 0.9891669662851208, 0.044273376570633786, 0.11408197958578555, 0.0768850632007942, 0.00030777655844641916, 0.08150237207590258, 0.1524851810452625, 0.0], [0.04848009758543979, 0.033932693138881934, 0.1576728147825093, 0.1156413004229678, 0.019827421456913498, 0.1370493828015036, 0.9434230959956976, 0.8358664919553096, 0.9659843031437784, 0.0], [0.8255232159315342, 0.7619346130188253, 0.9439524516012524, 0.12903379345800742, 0.0327157614266191, 0.012707955576343058, 0.04442255384636929, 0.07773015732296201, 0.08230671080957966, 0.0], [0.009782346488446891, 0.024677756743980508, 0.012818678782501916, 0.9584093018583628, 0.9501075206319578, 0.9728777637729268, 0.9824421639517931, 0.970120796780562, 0.9847948449429228, 0.0], [0.9780477630491712, 0.976149018812053, 0.9568338785932782, 0.006023667196555691, 0.1918443188910013, 0.03169837419464445, 0.13885285772479525, 0.022376239248926538, 0.07594009332668228, 0.0], [0.14976279523254385, 0.05795982163526984, 0.1829760770834744, 0.045341863112049886, 0.04482166924538911, 0.10773467158753644, 0.8995498715133754, 0.902594084749738, 0.8586580408495189, 0.0], [0.03042715894042653, 0.2649606470972152, 0.02648304786111166, 0.98184601476554, 0.8222966689478465, 0.8671063879667533, 0.08849898747198907, 0.08706083797967601, 0.06437000213977563, 0.0], [0.009072841122778551, 0.016725812272438727, 0.08382757306999206, 0.04929653176865804, 0.09441544980669477, 0.16813909106889632, 0.9127392887804212, 0.8936625453867203, 0.8527895148818655, 0.0], [0.05288533572302356, 0.10235733220400953, 0.14195886010362618, 0.050571181169085135, 0.16588993014821307, 0.06528011969807185, 0.9398455210721126, 0.8947483398148481, 0.8723963680883217, 0.0], [0.9633539458885384, 0.9681026638273199, 0.9091532885518012, 0.08102848834098131, 0.2692983940340873, 0.05696039249501679, 0.16314321325319373, 0.07150550146579505, 0.18274273504461305, 0.0], [0.8900882454377969, 0.9685251240195364, 0.9007233728606971, 0.04341181239571645, 0.12256942817776745, 0.10600860199823746, 0.9752141759795788, 0.981185923757506, 0.8699551967918843, 0.0], [0.8953268598349866, 0.8650960919779671, 0.9005682501743251, 0.1355846474619309, 0.14615252403770151, 0.1480822539032541, 0.92165918168005, 0.93118970019864, 0.9605782996015646, 0.0], [0.16286270829935556, 0.18481032058329047, 0.038813430979536004, 0.8032679066437161, 0.9292654755426041, 0.9129026964916928, 0.9986100818660536, 0.8988207135735815, 0.9723322463968204, 0.0], [0.2135882579668772, 0.029669799731271783, 0.0957662971863486, 0.019612749271210983, 0.1266649689627107, 0.04898347853193582, 0.946859751112241, 0.9168839855841986, 0.9753880941008028, 0.0], [0.8857803405628544, 0.8594959701252906, 0.9597811432345889, 0.22029816135370128, 0.10415824302652156, 0.09425095403177318, 0.01806402103602815, 0.2431968743276717, 0.026666740047471958, 0.0], [0.9734283747655118, 0.9833311704386608, 0.9566327040581954, 0.1045101494425407, 0.04343934510607245, 0.01157273296869152, 0.9245619434185672, 0.9564120392337558, 0.9321058579087108, 0.0], [0.9660882385987376, 0.9545654759921129, 0.922929860239354, 0.13397835003111533, 0.06630906864147794, 0.0236113017293682, 0.005261324684947818, 0.0983915481272663, 0.13030346520913136, 0.0], [0.8657466259006096, 0.9806698868819852, 0.7999580772684356, 0.855889759922834, 0.9961279344868036, 0.9721251810732324, 0.1056982170265048, 0.10789197192363226, 0.14595616114781562, 0.0], [0.07196715717631894, 0.05839636072229638, 0.019519219028653074, 0.07721515340769332, 0.23289215754774786, 0.06346550259604743, 0.8457447513831843, 0.9794479611506092, 0.8039328424130359, 0.0], [0.9336229364958856, 0.8706769937648935, 0.9912676496395688, 0.8180885306690484, 0.8889132002110802, 0.9868795741130464, 0.10085413901071587, 0.1177496807361268, 0.08169178411599631, 0.0], [0.013231726145392787, 0.06026101613889742, 0.07563884540692001, 0.92072518111317, 0.907243877278808, 0.9855616831806362, 0.010205739582122128, 0.01872520655550566, 0.16193143036746244, 0.0], [0.8703532110174416, 0.9873882446811416, 0.980711614536637, 0.07253502198880467, 0.06214409038718102, 0.15499225821640614, 0.9834502224880416, 0.9835096118603692, 0.9653131031857158, 0.0], [0.9834036668187628, 0.9930650117503108, 0.9666753949076772, 0.016533943634758404, 0.16180059276778086, 0.02777691742977126, 0.012224316984256649, 0.03958503816511389, 0.055855033357243886, 0.0], [0.05671152843624345, 0.1857327287104939, 0.10385487924226194, 0.9679666710284888, 0.8795906214595135, 0.9209368784900056, 0.10579031959421058, 0.05287509555618376, 0.025480060581277303, 0.0], [0.004466372390292599, 0.06780785999039819, 0.018250769252193558, 0.9308346251771354, 0.9420038386707844, 0.8788476559614447, 0.13663345821907133, 0.045506949863889264, 0.1976555166633105, 0.0], [0.10820521761819192, 0.10592342336997064, 0.011096158324569966, 0.9652731911138014, 0.964916055240898, 0.8389952929598025, 0.1885685546306899, 0.06584297180935185, 0.11904979400452352, 0.0], [0.041932025855066515, 0.08059697940690176, 0.12874339460527182, 0.025286099554872397, 0.024163165431641084, 0.003867609734376325, 0.991364712289698, 0.8228449646215426, 0.863413563282118, 0.0], [0.9734869805346291, 0.9922514708373564, 0.9012151309822304, 0.9783094080848715, 0.914588232976694, 0.910221884042789, 0.1743827921931012, 0.15052577475087905, 0.03860336206090573, 0.0], [0.12267402138084492, 0.050536005986932656, 0.05200661794928636, 0.9813223223048172, 0.8753337491964367, 0.9233324932365126, 0.049026787489325464, 0.012737018126093952, 0.11397521315271905, 0.0], [0.9479917998368518, 0.9816579486625656, 0.9273200596853292, 0.08694410172218586, 0.010459990748311243, 0.07884070616005844, 0.9254001967997024, 0.9784825505748084, 0.8551158718010491, 0.0], [0.13656955790969075, 0.010154716233339177, 0.0852279326302212, 0.7376186511702201, 0.8531366741554104, 0.8855568757030562, 0.9144622533575668, 0.8169658801409088, 0.9463508890760312, 0.0], [0.9669672320990202, 0.8812806009275185, 0.934405819056728, 0.15299984516343668, 0.03911722474989835, 0.02957893142398336, 0.9237301552567668, 0.8463614500380213, 0.9795388547177724, 0.0], [0.897837827488983, 0.9509455921180472, 0.8932622831993087, 0.15729379134792856, 0.12486012478280648, 0.2395567480199322, 0.07674039392837984, 0.015167137901634209, 0.0784477584832985, 0.0], [0.11320799881911993, 0.1065243023024065, 0.00883541947827768, 0.8647612384931962, 0.997008745043242, 0.9204682105735876, 0.08118716019272376, 0.007724741763865121, 0.1096133748886991, 0.0], [0.08889071262512249, 0.011236451160710769, 0.006431616468396371, 0.8410172959400458, 0.9909461641275092, 0.8965819292569545, 0.07314729592513372, 0.03397740155232512, 0.11480846349495533, 0.0], [0.8940626759205987, 0.9378186315348792, 0.9958407830899706, 0.934898195737295, 0.9613238042854816, 0.9095694113385976, 0.04885781612068756, 0.04780585168518847, 0.27895831949239164, 0.0], [0.9053494422361832, 0.9828368589206546, 0.9146795627916704, 0.10466324565709596, 0.10580067870150553, 0.08172384432974872, 0.010389456601229408, 0.06706096761585806, 0.001528776813141274, 0.0], [0.06279762661451066, 0.07604917095165817, 0.0711403562051526, 0.9500535137781868, 0.9260327653417084, 0.9574109106361826, 0.8816456714191023, 0.9745276379355378, 0.9962345277460178, 0.0], [0.8638332113642422, 0.7783780043355312, 0.8288411170362052, 0.07913132904529019, 0.015101855493847996, 0.1063683021566872, 0.9149769260969762, 0.9037028868489184, 0.9797246247897916, 0.0], [0.9974475416463168, 0.9734929028505596, 0.9970942266439344, 0.06508678466504915, 0.060728070298509434, 0.08885908878440579, 0.1735117323014798, 0.034261624091111664, 0.12791720720449806, 0.0], [0.040063823499978654, 0.05308167842286846, 0.06501100333650886, 0.9563586813864052, 0.9125162200077732, 0.8850955292114556, 0.8603899616673132, 0.8187870327127388, 0.9863250077719432, 0.0], [0.9985723455134168, 0.949497758303082, 0.929760054633148, 0.0502542949319985, 0.2845702692302615, 0.09686659575522526, 0.14878642859864055, 0.13102493086911102, 0.026358080625903942, 0.0], [0.0968302480211782, 0.06925276487808116, 0.10884278921068938, 0.9423332920990316, 0.7931369410008821, 0.9486525726158148, 0.015532041037688403, 0.08979106433225069, 0.1159283790666906, 0.0], [0.9974442759990952, 0.9086413962570388, 0.9760792237488388, 0.7019245625442203, 0.8678190544742229, 0.7035355359037938, 0.06877787509458172, 0.001964328072495972, 0.11017769397896736, 0.0], [0.0187253513006262, 0.05720115458703817, 0.15328763382690205, 0.8002173178854138, 0.9551743364454768, 0.9233743001853176, 0.9252596729628232, 0.9059843938938664, 0.9965428575133599, 0.0], [0.9612110653731636, 0.9656843364110548, 0.927467693516711, 0.09381652957456277, 0.16638054204957595, 0.14189382116448054, 0.04360179679577018, 0.04317439457754177, 0.03219933533882404, 0.0], [0.8426460695106884, 0.9591834004390776, 0.9632906531085031, 0.08714465829105067, 0.012534374073225607, 0.07141116787438162, 0.024116240455851336, 0.08254005697050444, 0.07002787248152477, 0.0], [0.07870114898907728, 0.13926025455329402, 0.049389433442310095, 0.07053864271177981, 0.1115390890422924, 0.1233770428344578, 0.9935194910516376, 0.8423833429536278, 0.8898791451711636, 0.0], [0.9999819246465972, 0.9527047237975824, 0.9781807306381122, 0.03645794816153106, 0.11618606332056425, 0.02555771126787349, 0.8383653225207528, 0.8995926177241753, 0.9919624707604494, 0.0], [0.8717928745319743, 0.9358005359627588, 0.9880633726111842, 0.09714856949722242, 0.028841282471331525, 0.08935981193331051, 0.11894659602732195, 0.0454188412615771, 0.08624092709318239, 0.0], [0.9394150813036396, 0.894650029717164, 0.8892707840517791, 0.10183539900393568, 0.026243302794455928, 0.055831370953498535, 0.0007500771899548969, 0.10228485444097203, 0.04385128493848876, 0.0], [0.8351436504947161, 0.9333851978443891, 0.8384013948778375, 0.04186990153383486, 0.21536971233082186, 0.1050630648553308, 0.9270317055023108, 0.8575190458925304, 0.9779995131042231, 0.0], [0.8896563311915331, 0.9251761540862752, 0.9464784365273804, 0.9339368875969482, 0.9223284777010696, 0.9961509299374244, 0.1957042684384808, 0.05284038955343731, 0.028676327280801262, 0.0], [0.00998641032263468, 0.03774940536475117, 0.08567855130660695, 0.1331350089324312, 0.04472966557099969, 0.01273343254387807, 0.9620296592310872, 0.9605433938192812, 0.9617086335670251, 0.0], [0.058185662007482326, 0.041137991488420206, 0.06459592651621834, 0.07893311524906126, 0.022170680057060733, 0.01434583349339352, 0.8149332496019883, 0.8486783586341221, 0.8711814661636685, 0.0], [0.1188536801224483, 0.14496854410858304, 0.0855272097067409, 0.8463909852456851, 0.9779011770313576, 0.9214537203120818, 0.9548317171884809, 0.9556651280058488, 0.8744269912819904, 0.0], [0.1069387994013692, 0.015949637844761857, 0.04429191155966605, 0.8294680750616391, 0.9889331750963644, 0.9972837371661198, 0.04907334609886264, 0.007257220947035261, 0.05184808674446792, 0.0], [0.9323404637317614, 0.939471995631723, 0.9902519527590748, 0.947784988459723, 0.8626593222199899, 0.8593345249014589, 0.14462761378028782, 0.11145216683937784, 0.10287589968761762, 0.0], [0.0726964598967567, 0.0964983916212362, 0.05997668395532831, 0.8880967401977975, 0.968251933969006, 0.8884843537117767, 0.05030179824337985, 0.049268494497047184, 0.023351436408697603, 0.0], [0.9839203005523101, 0.91151530488626, 0.9126466166689304, 0.11668955551635005, 0.08606653398744843, 0.043532114212946615, 0.8742117541099527, 0.7517889487140671, 0.99512680660817, 0.0], [0.9852682224609404, 0.9719662973956492, 0.9997854663510984, 0.09735769971833452, 0.20073111513825684, 0.03424143060729808, 0.07201010567898088, 0.20913633912893986, 0.12261147004961062, 0.0], [0.04871082525118811, 0.005677448013715943, 0.030289700783337693, 0.7614502471078399, 0.901574705815186, 0.9022827862855192, 0.03133102706420073, 0.014093059791134356, 0.005457346559621858, 0.0], [0.9785926001419876, 0.9876602068429348, 0.9440438054134156, 0.8364676268244001, 0.92616847988253, 0.9414916018659972, 0.1165551699012109, 0.11851211097726325, 0.10722490058254062, 0.0], [0.02653113704694061, 0.1605072965765176, 0.04497269004262475, 0.9452734754431495, 0.9584250149953268, 0.8764562029083414, 0.9403786671928732, 0.8195190480556798, 0.8701998738587969, 0.0], [0.9160956637422164, 0.955382284529458, 0.8473094038962503, 0.08829403141414296, 0.19804993609319935, 0.0848292873211739, 0.9546856356188546, 0.7616985495196046, 0.9805211125535641, 0.0], [0.9840317880299704, 0.9345460963415272, 0.9502780814236114, 0.9906901392556609, 0.955987686344348, 0.9922937830932084, 0.009211004210182769, 0.110890601513162, 