{
    "params": {
        "method": "quantum",
        "quantum_backend": "IBM - Aer",
        "train_or_predict": "predict",
        "training_steps": 3,
        "is_supervised": false,
        "quantum_circuit_type": "StandardCircuit",
        "quantum_depth": 3,
        "batch_size": 16,
        "discriminator_iterations": 5,
        "validation_interval": 1,
        "validation_samples": 100,
        "discriminator_training_rate": 0.02,
        "generator_training_rate": 0.02,
        "gradient_penalty_weight": 10.0,
        "shots": 100,
        "latent_dimensions": 4,
        "adv_loss_weight": 1,
        "con_loss_weight": 50,
        "enc_loss_weight": 1,
        "trained_model": {
            "auto_decoder_weights": [
                [
                    5.417855262756348,
                    4.929690837860107,
                    3.0387589931488037,
                    1.101790189743042
                ],
                [
                    [
                        -0.2675075038342946,
                        -0.29782919379067124,
                        -0.40551853952161926,
                        0.5172607623661809
                    ],
                    [
                        0.5460248369479452,
                        0.5826433496464736,
                        -0.18210800165629776,
                        0.46353941357164324
                    ],
                    [
                        -0.21696589808884906,
                        0.16752831292252693,
                        -0.6576917747090669,
                        -0.8283269352148886
                    ],
                    [
                        -0.5501437708481081,
                        0.7613147579787635,
                        -0.8330748128682866,
                        -0.3950971789343292
                    ]
                ],
                [
                    -0.08778100930151679,
                    0.034328171551622204,
                    0.19584038647304164,
                    0.1545972101898781
                ],
                [
                    [
                        0.5871068487823162,
                        -0.10321729068848275,
                        0.6131117898413044,
                        0.6582984149527156
                    ],
                    [
                        -0.5326740361173093,
                        0.22777099055271657,
                        0.6351978450335866,
                        0.21717414955462694
                    ],
                    [
                        -0.30719890832037094,
                        -0.5851949394298017,
                        -0.0795375164936974,
                        -0.847391371396781
                    ],
                    [
                        -0.3811636267567855,
                        -0.8288334119551634,
                        0.32393681888312487,
                        -0.7598908756965255
                    ]
                ],
                [
                    -0.1245646462739519,
                    -0.2849920850390312,
                    0.07788641533947152,
                    -0.2572855102036153
                ],
                [
                    [
                        -0.5803127671504761,
                        0.5176231592530479,
                        -0.7046067892470445,
                        -0.14693179240743764
                    ],
                    [
                        -0.1277724618170602,
                        0.4595935749572818,
                        -0.9282573052277189,
                        -0.8462521876497117
                    ],
                    [
                        0.5110994800234855,
                        0.4983298959849504,
                        0.6639451966711383,
                        -0.13012843708226582
                    ],
                    [
                        -0.5572871208791634,
                        0.7729337783503168,
                        -0.8830004515194688,
                        -1.0239098866801855
                    ]
                ],
                [
                    0.03590533940479182,
                    0.05485806781230257,
                    0.3735764628290497,
                    0.7014918290497337
                ]
            ],
            "auto_encoder_weights": [
                [
                    [
                        -0.2480918911868774,
                        0.3666675547871661,
                        -0.6026144031935264,
                        0.3466774816687719
                    ],
                    [
                        -0.426734639515799,
                        0.5362051402548055,
                        0.679425489550577,
                        -0.6459741204063902
                    ],
                    [
                        -0.26991172549802533,
                        -0.12517978277533845,
                        -0.49053792146587044,
                        -0.40833286118136797
                    ],
                    [
                        -0.2400588631816071,
                        -0.8497177946579231,
                        0.30265399117774366,
                        0.08844454406311168
                    ]
                ],
                [
                    0.011578442128386749,
                    0.005043276826935583,
                    -0.008465730328108885,
                    -0.004444195380958169
                ],
                [
                    [
                        -0.4535771526939081,
                        -0.07674955368918732,
                        -0.3628117805244698,
                        -0.034342192620902365
                    ],
                    [
                        -0.4029129576434395,
                        0.1067882676749001,
                        -0.44387844569343,
                        0.8230922217294625
                    ],
                    [
                        -0.8671894533419319,
                        0.14475168576906716,
                        -0.08778608062173615,
                        -0.642517815279638
                    ],
                    [
                        -0.5098312655373187,
                        0.04510794250073964,
                        0.16196389956315865,
                        -0.48988102151822943
                    ]
                ],
                [
                    0.0030406025719079653,
                    -0.06373857147030058,
                    -0.006016364509605853,
                    0.03891606591014517
                ],
                [
                    [
                        0.4108848456132857,
                        -0.5405990955246477,
                        0.6545522613495909,
                        0.17227593803489333
                    ],
                    [
                        -0.5310359026312521,
                        0.045512535987659676,
                        0.1949104376833192,
                        -0.06882698916970907
                    ],
                    [
                        -0.7279254316259982,
                        0.6188625340343995,
                        0.3687646872188279,
                        0.150241327298028
                    ],
                    [
                        -0.2923178942892518,
                        -0.4632865142923157,
                        -0.008772332784491918,
                        -0.2166327081675525
                    ]
                ],
                [
                    -0.035665937681615086,
                    -0.029676172912316508,
                    -0.011848160049327159,
                    -0.011364638094368516
                ],
                [
                    [
                        0.6832912814833102,
                        0.716535830503191,
                        -0.5005412948433788,
                        -0.6315567020049943
                    ],
                    [
                        -1.8474941482310962e-05,
                        0.5135421380424069,
                        0.25992165748973045,
                        0.4909434422937179
                    ],
                    [
                        -0.10309117390547333,
                        -0.556324552910933,
                        0.18372958498766584,
                        -0.08910231840521293
                    ],
                    [
                        -0.3369532026313114,
                        -0.5648842512925567,
                        -0.5506963606807609,
                        0.6539934545871497
                    ]
                ],
                [
                    -0.067772463943739,
                    -0.04055384509034169,
                    -0.03568517572056046,
                    -0.02690284838120135
                ]
            ],
            "discriminator_weights": [
                [
                    [
                        -0.33075402847819396,
                        -0.0471339501647717,
                        -0.6195126603814973,
                        0.7563105815185571
                    ],
                    [
                        -0.048263820835741295,
                        1.4506725655672734,
                        0.6052370399265122,
                        -0.13471906503135836
                    ],
                    [
                        0.5293932466559792,
                        -0.5778217412081899,
                        -0.1503436292217211,
                        -0.04182576033307525
                    ],
                    [
                        -0.5487634798059594,
                        -0.41950999322622473,
                        0.09485209493646239,
                        -0.7195911694163521
                    ]
                ],
                [
                    0.14182315698771977,
                    0.28349552056688726,
                    0.7610679322314321,
                    0.9426808519252359
                ],
                [
                    [
                        0.681941076371345,
                        -0.17528235490422422
                    ],
                    [
                        -0.05253173995043821,
                        -0.6511960376548345
                    ],
                    [
                        0.37476612347446475,
                        0.9309589303918779
                    ],
                    [
                        -1.2097711974366414,
                        0.10273072200773468
                    ]
                ],
                [
                    0.38633145811048686,
                    0.07978563901419101
                ],
                [
                    [
                        -0.8206669283731107,
                        -0.0829731216397099
                    ],
                    [
                        1.0804750127544251,
                        -1.130221969346635
                    ]
                ],
                [
                    -0.027690451613112798,
                    0.08725310249619064
                ],
                [
                    [
                        1.1473702838239466
                    ],
                    [
                        -0.19859386822044084
                    ]
                ],
                [
                    -0.014341573382436934
                ]
            ],
            "encoder_weights": [
                [
                    [
                        -0.1688921741911985,
                        0.02855404020918005,
                        -0.6221975303671771,
                        -0.10071506366174147
                    ],
                    [
                        -0.24558755695083975,
                        0.4994632950350778,
                        -0.6062894033147219,
                        -0.7406163816585194
                    ],
                    [
                        -0.138305950450081,
                        -0.027476102772814228,
                        0.5694440427244748,
                        -0.1413325358908479
                    ],
                    [
                        0.2190664059169445,
                        -0.5662286546573907,
                        -0.6771851921008637,
                        -0.2139099823960097
                    ]
                ],
                [
                    -0.022094484604140117,
                    -0.050245589705939994,
                    0.06102291693328808,
                    -0.039647635043233376
                ],
                [
                    [
                        0.5894487232615491,
                        0.13607195753175572,
                        0.8480142778869874,
                        -0.6009767579887352
                    ],
                    [
                        0.4705261872598089,
                        -0.3415490104166103,
                        -0.21758308242020674,
                        0.49226520014421976
                    ],
                    [
                        -0.1752842887537677,
                        0.6185073485111123,
                        -0.2158779258271459,
                        -0.5029975964840351
                    ],
                    [
                        0.9025137239558133,
                        -0.13143099020152743,
                        0.857494261972125,
                        0.0859979709801892
                    ]
                ],
                [
                    -0.039904827592414795,
                    -0.03822159409169217,
                    -0.05788803445219321,
                    -0.09289772228429036
                ],
                [
                    [
                        -0.2518639280178397,
                        0.7463695550578839,
                        0.4322130426207406,
                        -0.2639314047119261
                    ],
                    [
                        0.08636601022766152,
                        0.9145067184256419,
                        0.7997064778663533,
                        -0.11039056054387157
                    ],
                    [
                        0.21195178418845737,
                        0.6565959539481587,
                        -0.031427628312642904,
                        0.35399519943084967
                    ],
                    [
                        -0.4631599326289791,
                        0.49688094268098176,
                        -0.2772025480627347,
                        0.30222568277129824
                    ]
                ],
                [
                    -0.0577276899017449,
                    -0.04331575987599819,
                    -0.041241722813253605,
                    -0.12327260062967035
                ],
                [
                    [
                        0.48625447264060295,
                        0.10636996744638814,
                        0.261830001533668,
                        0.35507462002926377
                    ],
                    [
                        -0.20697638792095027,
                        -0.5519305261972262,
                        -0.5148898062518676,
                        0.4124159418202138
                    ],
                    [
                        0.3948603112731372,
                        0.7521794717881627,
                        0.5783900229687815,
                        0.4911340189618997
                    ],
                    [
                        0.6810560688943845,
                        0.8317214112031801,
                        0.6919933651199387,
                        -0.3244882128282711
                    ]
                ],
                [
                    -0.0715990673828212,
                    -0.04743088586432887,
                    -0.025726021352130143,
                    -0.04561292185454029
                ]
            ],
            "latent_dim": 4
        }
    },
    "data": {
        "values": [
            [
                0.8703690630234513,
                0.9152264340251103,
                0.003917312643002316,
                0.1843946964135549
            ],
            [
                0.13812931413770732,
                0.0531310035123318,
                0.9037491858046557,
                0.90808385052695
            ],
            [
                0.1271837631816972,
                0.03217347465260724,
                0.9446258960233335,
                0.9096399643317419
            ],
            [
                0.9007215359450367,
                0.9759322521526523,
                0.08203359921244051,
                0.023472613509513122
            ],
            [
                0.9003571273844344,
                0.8786079732325509,
                0.14410516677601276,
                0.08953873791678058
            ],
            [
                0.04381190340617336,
                0.9304384423656492,
                0.0018299650853606337,
                0.9943067768201472
            ],
            [
                0.9346565172365934,
                0.08278706560495869,
                0.9308685252360713,
                0.005406760625522833
            ],
            [
                0.030752957450795107,
                0.9012409840418334,
                0.06246315802391757,
                0.8430923831502705
            ],
            [
                0.2870242584156148,
                0.9789044776298707,
                0.0009069875695204739,
                0.7894541876046169
            ],
            [
                0.9155546113525296,
                0.0017474710442063803,
                0.8615175314623567,
                0.05117053513537661
            ]
        ]
    }
}